svm_type c_svc
kernel_type rbf
gamma 2
nr_class 2
total_sv 92
rho -0.375
label 0 1
probA 1.3434
probB -0.610263
nr_sv 49 43
SV
32768 1:65536 2:2 3:64 4:65536 5:2 6:64 7:524288 8:16 9:64 10:6291456 11:48 12:64 13:0 14:0 15:0 16:12 17:0 18:0 19:0 20:0 21:0 22:1 23:0 24:0 25:0 26:0 27:0 28:0 29:0 30:0 31:0 32:0 33:0 34:0 35:0 36:0 37:2.412481e+09 38:1 39:0 40:0 41:0 42:0 43:1 44:0 45:0 46:0 47:0 48:0 49:0 50:0 51:0 52:0 53:0 54:1 55:7868235 56:786624 57:787392 58:757824 59:3.2883171e+10 60:2.2434832e+10 61:0 62:9.3607526e+08 63:3.2777703e+10 64:3.2777703e+10 65:191 66:0 67:0 68:1 69:1 70:0 71:0 72:2.9552079e-07 73:1.3715468e-06 74:0 75:-1.2680942e-06 76:5.8853744e-06 
32768 1:65536 2:2 3:64 4:65536 5:2 6:64 7:524288 8:16 9:64 10:6291456 11:48 12:64 13:0 14:0 15:0 16:12 17:0 18:0 19:0 20:0 21:0 22:1 23:0 24:0 25:0 26:0 27:0 28:0 29:0 30:0 31:0 32:0 33:0 34:0 35:0 36:0 37:2.412481e+09 38:1 39:0 40:0 41:0 42:0 43:1 44:0 45:0 46:0 47:0 48:0 49:0 50:0 51:0 52:0 53:0 54:1 55:7868235 56:786624 57:787392 58:757824 59:3.2883171e+10 60:2.2434832e+10 61:0 62:9.3607526e+08 63:3.2777703e+10 64:3.2777703e+10 65:191 66:0 67:0 68:1 69:1 70:0 71:0 72:2.9552094e-07 73:1.2928023e-06 74:0 75:-1.179282e-06 76:5.1589525e-06 
0.625 1:65536 2:2 3:64 4:65536 5:2 6:64 7:524288 8:16 9:64 10:6291456 11:48 12:64 13:0 14:0 15:0 16:12 17:0 18:0 19:0 20:0 21:0 22:1 23:0 24:0 25:0 26:0 27:0 28:0 29:0 30:0 31:0 32:0 33:0 34:0 35:0 36:0 37:2.412481e+09 38:1 39:0 40:0 41:0 42:0 43:1 44:0 45:0 46:0 47:0 48:0 49:0 50:0 51:0 52:0 53:0 54:1 55:7871263 56:786656 57:788224 58:788544 59:3.2883171e+10 60:2.2432657e+10 61:0 62:9.3609984e+08 63:3.2777703e+10 64:3.2777703e+10 65:194 66:0 67:0 68:1 69:1 70:0 71:0 72:2.9552079e-07 73:1.3715468e-06 74:0 75:-1.2680942e-06 76:5.8853744e-06 
32768 1:65536 2:2 3:64 4:65536 5:2 6:64 7:524288 8:16 9:64 10:6291456 11:48 12:64 13:0 14:0 15:0 16:12 17:0 18:0 19:0 20:0 21:0 22:1 23:0 24:0 25:0 26:0 27:0 28:0 29:0 30:0 31:0 32:0 33:0 34:0 35:0 36:0 37:2.412481e+09 38:1 39:0 40:0 41:0 42:0 43:1 44:0 45:0 46:0 47:0 48:0 49:0 50:0 51:0 52:0 53:0 54:1 55:7871263 56:786656 57:788224 58:788544 59:3.2883171e+10 60:2.2432657e+10 61:0 62:9.3609984e+08 63:3.2777703e+10 64:3.2777703e+10 65:194 66:0 67:0 68:1 69:1 70:0 71:0 72:2.9552094e-07 73:1.2928023e-06 74:0 75:-1.179282e-06 76:5.1589525e-06 
32768 1:65536 2:2 3:64 4:65536 5:2 6:64 7:524288 8:16 9:64 10:6291456 11:48 12:64 13:0 14:0 15:0 16:12 17:0 18:0 19:0 20:0 21:0 22:1 23:0 24:0 25:0 26:0 27:0 28:0 29:0 30:0 31:0 32:0 33:0 34:0 35:0 36:0 37:2.412481e+09 38:1 39:0 40:0 41:0 42:0 43:1 44:0 45:0 46:0 47:0 48:0 49:0 50:0 51:0 52:0 53:0 54:1 55:7871263 56:786656 57:788224 58:788544 59:3.2883171e+10 60:2.2432657e+10 61:0 62:9.3609984e+08 63:3.2777703e+10 64:3.2777703e+10 65:194 66:0 67:0 68:1 69:1 70:0 71:0 72:2.9552094e-07 73:1.3386397e-06 74:0 75:-1.231198e-06 76:5.5770349e-06 
0.625 1:65536 2:2 3:64 4:65536 5:2 6:64 7:524288 8:16 9:64 10:6291456 11:48 12:64 13:0 14:0 15:0 16:12 17:0 18:0 19:0 20:0 21:0 22:1 23:0 24:0 25:0 26:0 27:0 28:0 29:0 30:0 31:0 32:0 33:0 34:0 35:0 36:0 37:2.412481e+09 38:1 39:0 40:0 41:0 42:0 43:1 44:0 45:0 46:0 47:0 48:0 49:0 50:0 51:0 52:0 53:0 54:1 55:7877322 56:786624 57:787392 58:784160 59:3.2883171e+10 60:2.2434947e+10 61:0 62:9.3618176e+08 63:3.2777703e+10 64:3.2777703e+10 65:191 66:0 67:0 68:1 69:1 70:0 71:0 72:2.9552094e-07 73:1.2928023e-06 74:0 75:-1.179282e-06 76:5.1589525e-06 
32768 1:65536 2:2 3:64 4:65536 5:2 6:64 7:524288 8:16 9:64 10:6291456 11:48 12:64 13:0 14:0 15:0 16:12 17:0 18:0 19:0 20:0 21:0 22:1 23:0 24:0 25:0 26:0 27:0 28:0 29:0 30:0 31:0 32:0 33:0 34:0 35:0 36:0 37:2.412481e+09 38:1 39:0 40:0 41:0 42:0 43:1 44:0 45:0 46:0 47:0 48:0 49:0 50:0 51:0 52:0 53:0 54:1 55:7877322 56:786624 57:787392 58:784160 59:3.2883171e+10 60:2.2434947e+10 61:0 62:9.3618176e+08 63:3.2777703e+10 64:3.2777703e+10 65:191 66:0 67:0 68:1 69:1 70:0 71:0 72:2.9552094e-07 73:1.3386397e-06 74:0 75:-1.231198e-06 76:5.5770349e-06 
0.625 1:65536 2:2 3:64 4:65536 5:2 6:64 7:524288 8:16 9:64 10:6291456 11:48 12:64 13:0 14:0 15:0 16:12 17:0 18:0 19:0 20:0 21:0 22:1 23:0 24:0 25:0 26:0 27:0 28:0 29:0 30:0 31:0 32:0 33:0 34:0 35:0 36:0 37:2.412481e+09 38:1 39:0 40:0 41:0 42:0 43:1 44:0 45:0 46:0 47:0 48:0 49:0 50:0 51:0 52:0 53:0 54:1 55:7880351 56:790304 57:788352 58:784512 59:3.2883171e+10 60:2.243514e+10 61:0 62:9.3622272e+08 63:3.2777703e+10 64:3.2777703e+10 65:191 66:0 67:0 68:1 69:1 70:0 71:0 72:2.9552079e-07 73:1.3715468e-06 74:0 75:-1.2680942e-06 76:5.8853744e-06 
32768 1:65536 2:2 3:64 4:65536 5:2 6:64 7:524288 8:16 9:64 10:6291456 11:48 12:64 13:0 14:0 15:0 16:12 17:0 18:0 19:0 20:0 21:0 22:1 23:0 24:0 25:0 26:0 27:0 28:0 29:0 30:0 31:0 32:0 33:0 34:0 35:0 36:0 37:2.412481e+09 38:1 39:0 40:0 41:0 42:0 43:1 44:0 45:0 46:0 47:0 48:0 49:0 50:0 51:0 52:0 53:0 54:1 55:7880351 56:790304 57:788352 58:784512 59:3.2883171e+10 60:2.243514e+10 61:0 62:9.3622272e+08 63:3.2777703e+10 64:3.2777703e+10 65:191 66:0 67:0 68:1 69:1 70:0 71:0 72:2.9552094e-07 73:1.2928023e-06 74:0 75:-1.179282e-06 76:5.1589525e-06 
32768 1:65536 2:2 3:64 4:65536 5:2 6:64 7:524288 8:16 9:64 10:6291456 11:48 12:64 13:0 14:0 15:0 16:12 17:0 18:0 19:0 20:0 21:0 22:1 23:0 24:0 25:0 26:0 27:0 28:0 29:0 30:0 31:0 32:0 33:0 34:0 35:0 36:0 37:2.412481e+09 38:1 39:0 40:0 41:0 42:0 43:1 44:0 45:0 46:0 47:0 48:0 49:0 50:0 51:0 52:0 53:0 54:1 55:7880351 56:790304 57:788352 58:784512 59:3.2883171e+10 60:2.243514e+10 61:0 62:9.3622272e+08 63:3.2777703e+10 64:3.2777703e+10 65:191 66:0 67:0 68:1 69:1 70:0 71:0 72:2.9552094e-07 73:1.3386397e-06 74:0 75:-1.231198e-06 76:5.5770349e-06 
32768 1:65536 2:2 3:64 4:65536 5:2 6:64 7:524288 8:16 9:64 10:6291456 11:48 12:64 13:0 14:0 15:0 16:12 17:0 18:0 19:0 20:0 21:0 22:1 23:0 24:0 25:0 26:0 27:0 28:0 29:0 30:0 31:0 32:0 33:0 34:0 35:0 36:0 37:2.412481e+09 38:1 39:0 40:0 41:0 42:0 43:1 44:0 45:0 46:0 47:0 48:0 49:0 50:0 51:0 52:0 53:0 54:1 55:7883378 56:786624 57:787392 58:785568 59:3.2883171e+10 60:2.2433886e+10 61:0 62:9.362391e+08 63:3.2777703e+10 64:3.2777703e+10 65:191 66:0 67:0 68:1 69:1 70:0 71:0 72:2.9552079e-07 73:1.3715468e-06 74:0 75:-1.2680942e-06 76:5.8853744e-06 
32768 1:65536 2:2 3:64 4:65536 5:2 6:64 7:524288 8:16 9:64 10:6291456 11:48 12:64 13:0 14:0 15:0 16:12 17:0 18:0 19:0 20:0 21:0 22:1 23:0 24:0 25:0 26:0 27:0 28:0 29:0 30:0 31:0 32:0 33:0 34:0 35:0 36:0 37:2.412481e+09 38:1 39:0 40:0 41:0 42:0 43:1 44:0 45:0 46:0 47:0 48:0 49:0 50:0 51:0 52:0 53:0 54:1 55:7883378 56:786624 57:787392 58:785568 59:3.2883171e+10 60:2.2433886e+10 61:0 62:9.362391e+08 63:3.2777703e+10 64:3.2777703e+10 65:191 66:0 67:0 68:1 69:1 70:0 71:0 72:2.9552094e-07 73:1.2928023e-06 74:0 75:-1.179282e-06 76:5.1589525e-06 
32768 1:65536 2:2 3:64 4:65536 5:2 6:64 7:524288 8:16 9:64 10:6291456 11:48 12:64 13:0 14:0 15:0 16:12 17:0 18:0 19:0 20:0 21:0 22:1 23:0 24:0 25:0 26:0 27:0 28:0 29:0 30:0 31:0 32:0 33:0 34:0 35:0 36:0 37:2.412481e+09 38:1 39:0 40:0 41:0 42:0 43:1 44:0 45:0 46:0 47:0 48:0 49:0 50:0 51:0 52:0 53:0 54:1 55:7883378 56:786624 57:787392 58:785568 59:3.2883171e+10 60:2.2433886e+10 61:0 62:9.362391e+08 63:3.2777703e+10 64:3.2777703e+10 65:191 66:0 67:0 68:1 69:1 70:0 71:0 72:2.9552094e-07 73:1.3386397e-06 74:0 75:-1.231198e-06 76:5.5770349e-06 
0.625 1:65536 2:2 3:64 4:65536 5:2 6:64 7:524288 8:16 9:64 10:6291456 11:48 12:64 13:0 14:0 15:0 16:12 17:0 18:0 19:0 20:0 21:0 22:1 23:0 24:0 25:0 26:0 27:0 28:0 29:0 30:0 31:0 32:0 33:0 34:0 35:0 36:0 37:2.412481e+09 38:1 39:0 40:0 41:0 42:0 43:1 44:0 45:0 46:0 47:0 48:0 49:0 50:0 51:0 52:0 53:0 54:1 55:7886406 56:786624 57:787392 58:786528 59:3.2883171e+10 60:2.2434828e+10 61:0 62:9.3625549e+08 63:3.2777703e+10 64:3.2777703e+10 65:191 66:0 67:0 68:1 69:1 70:0 71:0 72:2.9552094e-07 73:1.2928023e-06 74:0 75:-1.179282e-06 76:5.1589525e-06 
32768 1:65536 2:2 3:64 4:65536 5:2 6:64 7:524288 8:16 9:64 10:6291456 11:48 12:64 13:0 14:0 15:0 16:12 17:0 18:0 19:0 20:0 21:0 22:1 23:0 24:0 25:0 26:0 27:0 28:0 29:0 30:0 31:0 32:0 33:0 34:0 35:0 36:0 37:2.412481e+09 38:1 39:0 40:0 41:0 42:0 43:1 44:0 45:0 46:0 47:0 48:0 49:0 50:0 51:0 52:0 53:0 54:1 55:7886406 56:786624 57:787392 58:786528 59:3.2883171e+10 60:2.2434828e+10 61:0 62:9.3625549e+08 63:3.2777703e+10 64:3.2777703e+10 65:191 66:0 67:0 68:1 69:1 70:0 71:0 72:2.9552094e-07 73:1.3386397e-06 74:0 75:-1.231198e-06 76:5.5770349e-06 
0.625 1:65536 2:2 3:64 4:65536 5:2 6:64 7:524288 8:16 9:64 10:6291456 11:48 12:64 13:0 14:0 15:0 16:12 17:0 18:0 19:0 20:0 21:0 22:1 23:0 24:0 25:0 26:0 27:0 28:0 29:0 30:0 31:0 32:0 33:0 34:0 35:0 36:0 37:2.412481e+09 38:1 39:0 40:0 41:0 42:0 43:1 44:0 45:0 46:0 47:0 48:0 49:0 50:0 51:0 52:0 53:0 54:1 55:7889443 56:787040 57:787648 58:789408 59:3.2883171e+10 60:2.2434738e+10 61:0 62:9.3628006e+08 63:3.2777703e+10 64:3.2777703e+10 65:192 66:0 67:0 68:1 69:1 70:0 71:0 72:2.9552079e-07 73:1.3715468e-06 74:0 75:-1.2680942e-06 76:5.8853744e-06 
32768 1:65536 2:2 3:64 4:65536 5:2 6:64 7:524288 8:16 9:64 10:6291456 11:48 12:64 13:0 14:0 15:0 16:12 17:0 18:0 19:0 20:0 21:0 22:1 23:0 24:0 25:0 26:0 27:0 28:0 29:0 30:0 31:0 32:0 33:0 34:0 35:0 36:0 37:2.412481e+09 38:1 39:0 40:0 41:0 42:0 43:1 44:0 45:0 46:0 47:0 48:0 49:0 50:0 51:0 52:0 53:0 54:1 55:7889443 56:787040 57:787648 58:789408 59:3.2883171e+10 60:2.2434738e+10 61:0 62:9.3628006e+08 63:3.2777703e+10 64:3.2777703e+10 65:192 66:0 67:0 68:1 69:1 70:0 71:0 72:2.9552094e-07 73:1.2928023e-06 74:0 75:-1.179282e-06 76:5.1589525e-06 
32768 1:65536 2:2 3:64 4:65536 5:2 6:64 7:524288 8:16 9:64 10:6291456 11:48 12:64 13:0 14:0 15:0 16:12 17:0 18:0 19:0 20:0 21:0 22:1 23:0 24:0 25:0 26:0 27:0 28:0 29:0 30:0 31:0 32:0 33:0 34:0 35:0 36:0 37:2.412481e+09 38:1 39:0 40:0 41:0 42:0 43:1 44:0 45:0 46:0 47:0 48:0 49:0 50:0 51:0 52:0 53:0 54:1 55:7889443 56:787040 57:787648 58:789408 59:3.2883171e+10 60:2.2434738e+10 61:0 62:9.3628006e+08 63:3.2777703e+10 64:3.2777703e+10 65:192 66:0 67:0 68:1 69:1 70:0 71:0 72:2.9552094e-07 73:1.3386397e-06 74:0 75:-1.231198e-06 76:5.5770349e-06 
32768 1:65536 2:2 3:64 4:65536 5:2 6:64 7:524288 8:16 9:64 10:6291456 11:48 12:64 13:0 14:0 15:0 16:12 17:0 18:0 19:0 20:0 21:0 22:1 23:0 24:0 25:0 26:0 27:0 28:0 29:0 30:0 31:0 32:0 33:0 34:0 35:0 36:0 37:2.412481e+09 38:1 39:0 40:0 41:0 42:0 43:1 44:0 45:0 46:0 47:0 48:0 49:0 50:0 51:0 52:0 53:0 54:1 55:7892483 56:787424 57:790592 58:789440 59:3.2883171e+10 60:2.2434632e+10 61:0 62:9.3630464e+08 63:3.2777703e+10 64:3.2777703e+10 65:191 66:0 67:0 68:1 69:1 70:0 71:0 72:2.9552094e-07 73:1.2928023e-06 74:0 75:-1.179282e-06 76:5.1589525e-06 
32768 1:65536 2:2 3:64 4:65536 5:2 6:64 7:524288 8:16 9:64 10:6291456 11:48 12:64 13:0 14:0 15:0 16:12 17:0 18:0 19:0 20:0 21:0 22:1 23:0 24:0 25:0 26:0 27:0 28:0 29:0 30:0 31:0 32:0 33:0 34:0 35:0 36:0 37:2.412481e+09 38:1 39:0 40:0 41:0 42:0 43:1 44:0 45:0 46:0 47:0 48:0 49:0 50:0 51:0 52:0 53:0 54:1 55:7892483 56:787424 57:790592 58:789440 59:3.2883171e+10 60:2.2434632e+10 61:0 62:9.3630464e+08 63:3.2777703e+10 64:3.2777703e+10 65:191 66:0 67:0 68:1 69:1 70:0 71:0 72:2.9552094e-07 73:1.3386397e-06 74:0 75:-1.231198e-06 76:5.5770349e-06 
32768 1:65536 2:2 3:64 4:65536 5:2 6:64 7:524288 8:16 9:64 10:6291456 11:48 12:64 13:0 14:0 15:0 16:12 17:0 18:0 19:0 20:0 21:0 22:1 23:0 24:0 25:0 26:0 27:0 28:0 29:0 30:0 31:0 32:0 33:0 34:0 35:0 36:0 37:2.412481e+09 38:1 39:0 40:0 41:0 42:0 43:1 44:0 45:0 46:0 47:0 48:0 49:0 50:0 51:0 52:0 53:0 54:1 55:7895522 56:809856 57:806784 58:792928 59:3.2883171e+10 60:2.2434484e+10 61:0 62:9.3631283e+08 63:3.2777703e+10 64:3.2777703e+10 65:191 66:0 67:0 68:1 69:1 70:0 71:0 72:2.9552079e-07 73:1.3715468e-06 74:0 75:-1.2680942e-06 76:5.8853744e-06 
32768 1:65536 2:2 3:64 4:65536 5:2 6:64 7:524288 8:16 9:64 10:6291456 11:48 12:64 13:0 14:0 15:0 16:12 17:0 18:0 19:0 20:0 21:0 22:1 23:0 24:0 25:0 26:0 27:0 28:0 29:0 30:0 31:0 32:0 33:0 34:0 35:0 36:0 37:2.412481e+09 38:1 39:0 40:0 41:0 42:0 43:1 44:0 45:0 46:0 47:0 48:0 49:0 50:0 51:0 52:0 53:0 54:1 55:7895522 56:809856 57:806784 58:792928 59:3.2883171e+10 60:2.2434484e+10 61:0 62:9.3631283e+08 63:3.2777703e+10 64:3.2777703e+10 65:191 66:0 67:0 68:1 69:1 70:0 71:0 72:2.9552094e-07 73:1.2928023e-06 74:0 75:-1.179282e-06 76:5.1589525e-06 
32768 1:65536 2:2 3:64 4:65536 5:2 6:64 7:524288 8:16 9:64 10:6291456 11:48 12:64 13:0 14:0 15:0 16:12 17:0 18:0 19:0 20:0 21:0 22:1 23:0 24:0 25:0 26:0 27:0 28:0 29:0 30:0 31:0 32:0 33:0 34:0 35:0 36:0 37:2.412481e+09 38:1 39:0 40:0 41:0 42:0 43:1 44:0 45:0 46:0 47:0 48:0 49:0 50:0 51:0 52:0 53:0 54:1 55:7895522 56:809856 57:806784 58:792928 59:3.2883171e+10 60:2.2434484e+10 61:0 62:9.3631283e+08 63:3.2777703e+10 64:3.2777703e+10 65:191 66:0 67:0 68:1 69:1 70:0 71:0 72:2.9552094e-07 73:1.3386397e-06 74:0 75:-1.231198e-06 76:5.5770349e-06 
32768 1:65536 2:2 3:64 4:65536 5:2 6:64 7:524288 8:16 9:64 10:6291456 11:48 12:64 13:0 14:0 15:0 16:12 17:0 18:0 19:0 20:0 21:0 22:1 23:0 24:0 25:0 26:0 27:0 28:0 29:0 30:0 31:0 32:0 33:0 34:0 35:0 36:0 37:2.412481e+09 38:1 39:0 40:0 41:0 42:0 43:1 44:0 45:0 46:0 47:0 48:0 49:0 50:0 51:0 52:0 53:0 54:1 55:7898559 56:786624 57:787392 58:784160 59:3.2883171e+10 60:2.243491e+10 61:0 62:9.3631693e+08 63:3.2777703e+10 64:3.2777703e+10 65:190 66:0 67:0 68:1 69:1 70:0 71:0 72:2.9552079e-07 73:1.3715468e-06 74:0 75:-1.2680942e-06 76:5.8853744e-06 
32768 1:65536 2:2 3:64 4:65536 5:2 6:64 7:524288 8:16 9:64 10:6291456 11:48 12:64 13:0 14:0 15:0 16:12 17:0 18:0 19:0 20:0 21:0 22:1 23:0 24:0 25:0 26:0 27:0 28:0 29:0 30:0 31:0 32:0 33:0 34:0 35:0 36:0 37:2.412481e+09 38:1 39:0 40:0 41:0 42:0 43:1 44:0 45:0 46:0 47:0 48:0 49:0 50:0 51:0 52:0 53:0 54:1 55:7898559 56:786624 57:787392 58:784160 59:3.2883171e+10 60:2.243491e+10 61:0 62:9.3631693e+08 63:3.2777703e+10 64:3.2777703e+10 65:190 66:0 67:0 68:1 69:1 70:0 71:0 72:2.9552094e-07 73:1.2928023e-06 74:0 75:-1.179282e-06 76:5.1589525e-06 
32768 1:65536 2:2 3:64 4:65536 5:2 6:64 7:524288 8:16 9:64 10:6291456 11:48 12:64 13:0 14:0 15:0 16:12 17:0 18:0 19:0 20:0 21:0 22:1 23:0 24:0 25:0 26:0 27:0 28:0 29:0 30:0 31:0 32:0 33:0 34:0 35:0 36:0 37:2.412481e+09 38:1 39:0 40:0 41:0 42:0 43:1 44:0 45:0 46:0 47:0 48:0 49:0 50:0 51:0 52:0 53:0 54:1 55:7898559 56:786624 57:787392 58:784160 59:3.2883171e+10 60:2.243491e+10 61:0 62:9.3631693e+08 63:3.2777703e+10 64:3.2777703e+10 65:190 66:0 67:0 68:1 69:1 70:0 71:0 72:2.9552094e-07 73:1.3386397e-06 74:0 75:-1.231198e-06 76:5.5770349e-06 
32768 1:65536 2:2 3:64 4:65536 5:2 6:64 7:524288 8:16 9:64 10:6291456 11:48 12:64 13:0 14:0 15:0 16:12 17:0 18:0 19:0 20:0 21:0 22:1 23:0 24:0 25:0 26:0 27:0 28:0 29:0 30:0 31:0 32:0 33:0 34:0 35:0 36:0 37:2.412481e+09 38:1 39:0 40:0 41:0 42:0 43:1 44:0 45:0 46:0 47:0 48:0 49:0 50:0 51:0 52:0 53:0 54:1 55:7901641 56:771232 57:784352 58:783456 59:3.2883171e+10 60:2.243301e+10 61:0 62:9.3632102e+08 63:3.2777703e+10 64:3.2777703e+10 65:191 66:0 67:0 68:1 69:1 70:0 71:0 72:2.9552094e-07 73:1.2928023e-06 74:0 75:-1.179282e-06 76:5.1589525e-06 
32768 1:65536 2:2 3:64 4:65536 5:2 6:64 7:524288 8:16 9:64 10:6291456 11:48 12:64 13:0 14:0 15:0 16:12 17:0 18:0 19:0 20:0 21:0 22:1 23:0 24:0 25:0 26:0 27:0 28:0 29:0 30:0 31:0 32:0 33:0 34:0 35:0 36:0 37:2.412481e+09 38:1 39:0 40:0 41:0 42:0 43:1 44:0 45:0 46:0 47:0 48:0 49:0 50:0 51:0 52:0 53:0 54:1 55:7901641 56:771232 57:784352 58:783456 59:3.2883171e+10 60:2.243301e+10 61:0 62:9.3632102e+08 63:3.2777703e+10 64:3.2777703e+10 65:191 66:0 67:0 68:1 69:1 70:0 71:0 72:2.9552094e-07 73:1.3386397e-06 74:0 75:-1.231198e-06 76:5.5770349e-06 
32768 1:65536 2:2 3:64 4:65536 5:2 6:64 7:524288 8:16 9:64 10:6291456 11:48 12:64 13:0 14:0 15:0 16:12 17:0 18:0 19:0 20:0 21:0 22:1 23:0 24:0 25:0 26:0 27:0 28:0 29:0 30:0 31:0 32:0 33:0 34:0 35:0 36:0 37:2.412481e+09 38:1 39:0 40:0 41:0 42:0 43:1 44:0 45:0 46:0 47:0 48:0 49:0 50:0 51:0 52:0 53:0 54:1 55:7904674 56:786624 57:787392 58:784160 59:3.2883171e+10 60:2.2434578e+10 61:0 62:9.3632922e+08 63:3.2777703e+10 64:3.2777703e+10 65:191 66:0 67:0 68:1 69:1 70:0 71:0 72:2.9552079e-07 73:1.3715468e-06 74:0 75:-1.2680942e-06 76:5.8853744e-06 
0.625 1:65536 2:2 3:64 4:65536 5:2 6:64 7:524288 8:16 9:64 10:6291456 11:48 12:64 13:0 14:0 15:0 16:12 17:0 18:0 19:0 20:0 21:0 22:1 23:0 24:0 25:0 26:0 27:0 28:0 29:0 30:0 31:0 32:0 33:0 34:0 35:0 36:0 37:2.412481e+09 38:1 39:0 40:0 41:0 42:0 43:1 44:0 45:0 46:0 47:0 48:0 49:0 50:0 51:0 52:0 53:0 54:1 55:7907711 56:786624 57:787392 58:789408 59:3.2883171e+10 60:2.2434849e+10 61:0 62:9.363456e+08 63:3.2777703e+10 64:3.2777703e+10 65:191 66:0 67:0 68:1 69:1 70:0 71:0 72:2.9552079e-07 73:1.3715468e-06 74:0 75:-1.2680942e-06 76:5.8853744e-06 
32768 1:65536 2:2 3:64 4:65536 5:2 6:64 7:524288 8:16 9:64 10:6291456 11:48 12:64 13:0 14:0 15:0 16:12 17:0 18:0 19:0 20:0 21:0 22:1 23:0 24:0 25:0 26:0 27:0 28:0 29:0 30:0 31:0 32:0 33:0 34:0 35:0 36:0 37:2.412481e+09 38:1 39:0 40:0 41:0 42:0 43:1 44:0 45:0 46:0 47:0 48:0 49:0 50:0 51:0 52:0 53:0 54:1 55:7907711 56:786624 57:787392 58:789408 59:3.2883171e+10 60:2.2434849e+10 61:0 62:9.363456e+08 63:3.2777703e+10 64:3.2777703e+10 65:191 66:0 67:0 68:1 69:1 70:0 71:0 72:2.9552094e-07 73:1.2928023e-06 74:0 75:-1.179282e-06 76:5.1589525e-06 
32768 1:65536 2:2 3:64 4:65536 5:2 6:64 7:524288 8:16 9:64 10:6291456 11:48 12:64 13:0 14:0 15:0 16:12 17:0 18:0 19:0 20:0 21:0 22:1 23:0 24:0 25:0 26:0 27:0 28:0 29:0 30:0 31:0 32:0 33:0 34:0 35:0 36:0 37:2.412481e+09 38:1 39:0 40:0 41:0 42:0 43:1 44:0 45:0 46:0 47:0 48:0 49:0 50:0 51:0 52:0 53:0 54:1 55:7907711 56:786624 57:787392 58:789408 59:3.2883171e+10 60:2.2434849e+10 61:0 62:9.363456e+08 63:3.2777703e+10 64:3.2777703e+10 65:191 66:0 67:0 68:1 69:1 70:0 71:0 72:1.3386469e-06 73:3.496322e-07 74:0 75:2.9089563e-07 76:-7.5977078e-08 
1 1:65536 2:2 3:64 4:65536 5:2 6:64 7:524288 8:16 9:64 10:6291456 11:48 12:64 13:0 14:0 15:0 16:12 17:0 18:0 19:0 20:0 21:0 22:1 23:0 24:0 25:0 26:0 27:0 28:0 29:0 30:0 31:0 32:0 33:0 34:0 35:0 36:0 37:2.412481e+09 38:1 39:0 40:0 41:0 42:0 43:1 44:0 45:0 46:0 47:0 48:0 49:0 50:0 51:0 52:0 53:0 54:1 55:7910797 56:770880 57:785056 58:788352 59:3.2883171e+10 60:2.2434648e+10 61:0 62:9.363456e+08 63:3.2777703e+10 64:3.2777703e+10 65:191 66:0 67:0 68:1 69:1 70:0 71:0 72:2.9552079e-07 73:1.3715468e-06 74:0 75:-1.2680942e-06 76:5.8853744e-06 
32768 1:65536 2:2 3:64 4:65536 5:2 6:64 7:524288 8:16 9:64 10:6291456 11:48 12:64 13:0 14:0 15:0 16:12 17:0 18:0 19:0 20:0 21:0 22:1 23:0 24:0 25:0 26:0 27:0 28:0 29:0 30:0 31:0 32:0 33:0 34:0 35:0 36:0 37:2.412481e+09 38:1 39:0 40:0 41:0 42:0 43:1 44:0 45:0 46:0 47:0 48:0 49:0 50:0 51:0 52:0 53:0 54:1 55:7910797 56:770880 57:785056 58:788352 59:3.2883171e+10 60:2.2434648e+10 61:0 62:9.363456e+08 63:3.2777703e+10 64:3.2777703e+10 65:191 66:0 67:0 68:1 69:1 70:0 71:0 72:2.9552094e-07 73:1.2928023e-06 74:0 75:-1.179282e-06 76:5.1589525e-06 
32767.625 1:65536 2:2 3:64 4:65536 5:2 6:64 7:524288 8:16 9:64 10:6291456 11:48 12:64 13:0 14:0 15:0 16:12 17:0 18:0 19:0 20:0 21:0 22:1 23:0 24:0 25:0 26:0 27:0 28:0 29:0 30:0 31:0 32:0 33:0 34:0 35:0 36:0 37:2.412481e+09 38:1 39:0 40:0 41:0 42:0 43:1 44:0 45:0 46:0 47:0 48:0 49:0 50:0 51:0 52:0 53:0 54:1 55:7910797 56:770880 57:785056 58:788352 59:3.2883171e+10 60:2.2434648e+10 61:0 62:9.363456e+08 63:3.2777703e+10 64:3.2777703e+10 65:191 66:0 67:0 68:1 69:1 70:0 71:0 72:2.9552094e-07 73:1.3386397e-06 74:0 75:-1.231198e-06 76:5.5770349e-06 
1 1:65536 2:2 3:64 4:65536 5:2 6:64 7:524288 8:16 9:64 10:6291456 11:48 12:64 13:0 14:0 15:0 16:12 17:0 18:0 19:0 20:0 21:0 22:1 23:0 24:0 25:0 26:0 27:0 28:0 29:0 30:0 31:0 32:0 33:0 34:0 35:0 36:0 37:2.412481e+09 38:1 39:0 40:0 41:0 42:0 43:1 44:0 45:0 46:0 47:0 48:0 49:0 50:0 51:0 52:0 53:0 54:1 55:7913881 56:786624 57:792160 58:790272 59:3.2883171e+10 60:2.2434603e+10 61:0 62:9.3636608e+08 63:3.2777703e+10 64:3.2777703e+10 65:191 66:0 67:0 68:1 69:1 70:0 71:0 72:2.9552079e-07 73:1.3715468e-06 74:0 75:-1.2680942e-06 76:5.8853744e-06 
32768 1:65536 2:2 3:64 4:65536 5:2 6:64 7:524288 8:16 9:64 10:6291456 11:48 12:64 13:0 14:0 15:0 16:12 17:0 18:0 19:0 20:0 21:0 22:1 23:0 24:0 25:0 26:0 27:0 28:0 29:0 30:0 31:0 32:0 33:0 34:0 35:0 36:0 37:2.412481e+09 38:1 39:0 40:0 41:0 42:0 43:1 44:0 45:0 46:0 47:0 48:0 49:0 50:0 51:0 52:0 53:0 54:1 55:7913881 56:786624 57:792160 58:790272 59:3.2883171e+10 60:2.2434603e+10 61:0 62:9.3636608e+08 63:3.2777703e+10 64:3.2777703e+10 65:191 66:0 67:0 68:1 69:1 70:0 71:0 72:2.9552094e-07 73:1.2928023e-06 74:0 75:-1.179282e-06 76:5.1589525e-06 
32767.625 1:65536 2:2 3:64 4:65536 5:2 6:64 7:524288 8:16 9:64 10:6291456 11:48 12:64 13:0 14:0 15:0 16:12 17:0 18:0 19:0 20:0 21:0 22:1 23:0 24:0 25:0 26:0 27:0 28:0 29:0 30:0 31:0 32:0 33:0 34:0 35:0 36:0 37:2.412481e+09 38:1 39:0 40:0 41:0 42:0 43:1 44:0 45:0 46:0 47:0 48:0 49:0 50:0 51:0 52:0 53:0 54:1 55:7913881 56:786624 57:792160 58:790272 59:3.2883171e+10 60:2.2434603e+10 61:0 62:9.3636608e+08 63:3.2777703e+10 64:3.2777703e+10 65:191 66:0 67:0 68:1 69:1 70:0 71:0 72:2.9552094e-07 73:1.3386397e-06 74:0 75:-1.231198e-06 76:5.5770349e-06 
32768 1:65536 2:2 3:64 4:65536 5:2 6:64 7:524288 8:16 9:64 10:6291456 11:48 12:64 13:0 14:0 15:0 16:12 17:0 18:0 19:0 20:0 21:0 22:1 23:0 24:0 25:0 26:0 27:0 28:0 29:0 30:0 31:0 32:0 33:0 34:0 35:0 36:0 37:2.412481e+09 38:1 39:0 40:0 41:0 42:0 43:1 44:0 45:0 46:0 47:0 48:0 49:0 50:0 51:0 52:0 53:0 54:1 55:7916911 56:789184 57:788224 58:783808 59:3.2883171e+10 60:2.243473e+10 61:0 62:9.3636608e+08 63:3.2777703e+10 64:3.2777703e+10 65:191 66:0 67:0 68:1 69:1 70:0 71:0 72:2.9552094e-07 73:1.2928023e-06 74:0 75:-1.179282e-06 76:5.1589525e-06 
32768 1:65536 2:2 3:64 4:65536 5:2 6:64 7:524288 8:16 9:64 10:6291456 11:48 12:64 13:0 14:0 15:0 16:12 17:0 18:0 19:0 20:0 21:0 22:1 23:0 24:0 25:0 26:0 27:0 28:0 29:0 30:0 31:0 32:0 33:0 34:0 35:0 36:0 37:2.412481e+09 38:1 39:0 40:0 41:0 42:0 43:1 44:0 45:0 46:0 47:0 48:0 49:0 50:0 51:0 52:0 53:0 54:1 55:7916911 56:789184 57:788224 58:783808 59:3.2883171e+10 60:2.243473e+10 61:0 62:9.3636608e+08 63:3.2777703e+10 64:3.2777703e+10 65:191 66:0 67:0 68:1 69:1 70:0 71:0 72:2.9552094e-07 73:1.3386397e-06 74:0 75:-1.231198e-06 76:5.5770349e-06 
1 1:65536 2:2 3:64 4:65536 5:2 6:64 7:524288 8:16 9:64 10:6291456 11:48 12:64 13:0 14:0 15:0 16:12 17:0 18:0 19:0 20:0 21:0 22:1 23:0 24:0 25:0 26:0 27:0 28:0 29:0 30:0 31:0 32:0 33:0 34:0 35:0 36:0 37:2.412481e+09 38:1 39:0 40:0 41:0 42:0 43:1 44:0 45:0 46:0 47:0 48:0 49:0 50:0 51:0 52:0 53:0 54:1 55:7919957 56:786624 57:787392 58:784512 59:3.2883171e+10 60:2.2435365e+10 61:0 62:9.3637427e+08 63:3.2777703e+10 64:3.2777703e+10 65:191 66:0 67:0 68:1 69:1 70:0 71:0 72:2.9552079e-07 73:1.3715468e-06 74:0 75:-1.2680942e-06 76:5.8853744e-06 
32768 1:65536 2:2 3:64 4:65536 5:2 6:64 7:524288 8:16 9:64 10:6291456 11:48 12:64 13:0 14:0 15:0 16:12 17:0 18:0 19:0 20:0 21:0 22:1 23:0 24:0 25:0 26:0 27:0 28:0 29:0 30:0 31:0 32:0 33:0 34:0 35:0 36:0 37:2.412481e+09 38:1 39:0 40:0 41:0 42:0 43:1 44:0 45:0 46:0 47:0 48:0 49:0 50:0 51:0 52:0 53:0 54:1 55:7919957 56:786624 57:787392 58:784512 59:3.2883171e+10 60:2.2435365e+10 61:0 62:9.3637427e+08 63:3.2777703e+10 64:3.2777703e+10 65:191 66:0 67:0 68:1 69:1 70:0 71:0 72:2.9552094e-07 73:1.2928023e-06 74:0 75:-1.179282e-06 76:5.1589525e-06 
32767.625 1:65536 2:2 3:64 4:65536 5:2 6:64 7:524288 8:16 9:64 10:6291456 11:48 12:64 13:0 14:0 15:0 16:12 17:0 18:0 19:0 20:0 21:0 22:1 23:0 24:0 25:0 26:0 27:0 28:0 29:0 30:0 31:0 32:0 33:0 34:0 35:0 36:0 37:2.412481e+09 38:1 39:0 40:0 41:0 42:0 43:1 44:0 45:0 46:0 47:0 48:0 49:0 50:0 51:0 52:0 53:0 54:1 55:7919957 56:786624 57:787392 58:784512 59:3.2883171e+10 60:2.2435365e+10 61:0 62:9.3637427e+08 63:3.2777703e+10 64:3.2777703e+10 65:191 66:0 67:0 68:1 69:1 70:0 71:0 72:2.9552094e-07 73:1.3386397e-06 74:0 75:-1.231198e-06 76:5.5770349e-06 
1 1:65536 2:2 3:64 4:65536 5:2 6:64 7:524288 8:16 9:64 10:6291456 11:48 12:64 13:0 14:0 15:0 16:12 17:0 18:0 19:0 20:0 21:0 22:1 23:0 24:0 25:0 26:0 27:0 28:0 29:0 30:0 31:0 32:0 33:0 34:0 35:0 36:0 37:2.412481e+09 38:1 39:0 40:0 41:0 42:0 43:1 44:0 45:0 46:0 47:0 48:0 49:0 50:0 51:0 52:0 53:0 54:1 55:7922998 56:786624 57:787392 58:786976 59:3.2883171e+10 60:2.2435234e+10 61:0 62:9.3637427e+08 63:3.2777703e+10 64:3.2777703e+10 65:191 66:0 67:0 68:1 69:1 70:0 71:0 72:2.9552079e-07 73:1.3715468e-06 74:0 75:-1.2680942e-06 76:5.8853744e-06 
32768 1:65536 2:2 3:64 4:65536 5:2 6:64 7:524288 8:16 9:64 10:6291456 11:48 12:64 13:0 14:0 15:0 16:12 17:0 18:0 19:0 20:0 21:0 22:1 23:0 24:0 25:0 26:0 27:0 28:0 29:0 30:0 31:0 32:0 33:0 34:0 35:0 36:0 37:2.412481e+09 38:1 39:0 40:0 41:0 42:0 43:1 44:0 45:0 46:0 47:0 48:0 49:0 50:0 51:0 52:0 53:0 54:1 55:7922998 56:786624 57:787392 58:786976 59:3.2883171e+10 60:2.2435234e+10 61:0 62:9.3637427e+08 63:3.2777703e+10 64:3.2777703e+10 65:191 66:0 67:0 68:1 69:1 70:0 71:0 72:2.9552094e-07 73:1.2928023e-06 74:0 75:-1.179282e-06 76:5.1589525e-06 
32767.625 1:65536 2:2 3:64 4:65536 5:2 6:64 7:524288 8:16 9:64 10:6291456 11:48 12:64 13:0 14:0 15:0 16:12 17:0 18:0 19:0 20:0 21:0 22:1 23:0 24:0 25:0 26:0 27:0 28:0 29:0 30:0 31:0 32:0 33:0 34:0 35:0 36:0 37:2.412481e+09 38:1 39:0 40:0 41:0 42:0 43:1 44:0 45:0 46:0 47:0 48:0 49:0 50:0 51:0 52:0 53:0 54:1 55:7922998 56:786624 57:787392 58:786976 59:3.2883171e+10 60:2.2435234e+10 61:0 62:9.3637427e+08 63:3.2777703e+10 64:3.2777703e+10 65:191 66:0 67:0 68:1 69:1 70:0 71:0 72:2.9552094e-07 73:1.3386397e-06 74:0 75:-1.231198e-06 76:5.5770349e-06 
1 1:65536 2:2 3:64 4:65536 5:2 6:64 7:524288 8:16 9:64 10:6291456 11:48 12:64 13:0 14:0 15:0 16:12 17:0 18:0 19:0 20:0 21:0 22:1 23:0 24:0 25:0 26:0 27:0 28:0 29:0 30:0 31:0 32:0 33:0 34:0 35:0 36:0 37:2.412481e+09 38:1 39:0 40:0 41:0 42:0 43:1 44:0 45:0 46:0 47:0 48:0 49:0 50:0 51:0 52:0 53:0 54:1 55:7926082 56:786624 57:788288 58:788000 59:3.2883171e+10 60:2.2433821e+10 61:0 62:9.3642342e+08 63:3.2777703e+10 64:3.2777703e+10 65:191 66:0 67:0 68:1 69:1 70:0 71:0 72:2.9552079e-07 73:1.3715468e-06 74:0 75:-1.2680942e-06 76:5.8853744e-06 
32768 1:65536 2:2 3:64 4:65536 5:2 6:64 7:524288 8:16 9:64 10:6291456 11:48 12:64 13:0 14:0 15:0 16:12 17:0 18:0 19:0 20:0 21:0 22:1 23:0 24:0 25:0 26:0 27:0 28:0 29:0 30:0 31:0 32:0 33:0 34:0 35:0 36:0 37:2.412481e+09 38:1 39:0 40:0 41:0 42:0 43:1 44:0 45:0 46:0 47:0 48:0 49:0 50:0 51:0 52:0 53:0 54:1 55:7926082 56:786624 57:788288 58:788000 59:3.2883171e+10 60:2.2433821e+10 61:0 62:9.3642342e+08 63:3.2777703e+10 64:3.2777703e+10 65:191 66:0 67:0 68:1 69:1 70:0 71:0 72:2.9552094e-07 73:1.2928023e-06 74:0 75:-1.179282e-06 76:5.1589525e-06 
32767.625 1:65536 2:2 3:64 4:65536 5:2 6:64 7:524288 8:16 9:64 10:6291456 11:48 12:64 13:0 14:0 15:0 16:12 17:0 18:0 19:0 20:0 21:0 22:1 23:0 24:0 25:0 26:0 27:0 28:0 29:0 30:0 31:0 32:0 33:0 34:0 35:0 36:0 37:2.412481e+09 38:1 39:0 40:0 41:0 42:0 43:1 44:0 45:0 46:0 47:0 48:0 49:0 50:0 51:0 52:0 53:0 54:1 55:7926082 56:786624 57:788288 58:788000 59:3.2883171e+10 60:2.2433821e+10 61:0 62:9.3642342e+08 63:3.2777703e+10 64:3.2777703e+10 65:191 66:0 67:0 68:1 69:1 70:0 71:0 72:2.9552094e-07 73:1.3386397e-06 74:0 75:-1.231198e-06 76:5.5770349e-06 
-1.5 1:65536 2:2 3:64 4:65536 5:2 6:64 7:524288 8:16 9:64 10:6291456 11:48 12:64 13:0 14:0 15:0 16:12 17:0 18:0 19:0 20:0 21:0 22:1 23:0 24:0 25:0 26:0 27:0 28:0 29:0 30:0 31:0 32:0 33:0 34:0 35:0 36:0 37:2.412481e+09 38:1 39:0 40:0 41:0 42:0 43:1 44:0 45:0 46:0 47:0 48:0 49:0 50:0 51:0 52:0 53:0 54:1 55:7868235 56:786624 57:787392 58:757824 59:3.2883171e+10 60:2.2434832e+10 61:0 62:9.3607526e+08 63:3.2777703e+10 64:3.2777703e+10 65:191 66:0 67:0 68:1 69:1 70:0 71:0 72:1.3715555e-06 73:3.4963242e-07 74:0 75:2.8016669e-07 76:-7.141917e-08 
-32768 1:65536 2:2 3:64 4:65536 5:2 6:64 7:524288 8:16 9:64 10:6291456 11:48 12:64 13:0 14:0 15:0 16:12 17:0 18:0 19:0 20:0 21:0 22:1 23:0 24:0 25:0 26:0 27:0 28:0 29:0 30:0 31:0 32:0 33:0 34:0 35:0 36:0 37:2.412481e+09 38:1 39:0 40:0 41:0 42:0 43:1 44:0 45:0 46:0 47:0 48:0 49:0 50:0 51:0 52:0 53:0 54:1 55:7868235 56:786624 57:787392 58:757824 59:3.2883171e+10 60:2.2434832e+10 61:0 62:9.3607526e+08 63:3.2777703e+10 64:3.2777703e+10 65:191 66:0 67:0 68:1 69:1 70:0 71:0 72:1.2928112e-06 73:3.4963246e-07 74:0 75:3.0725952e-07 76:-8.3096359e-08 
-32767.875 1:65536 2:2 3:64 4:65536 5:2 6:64 7:524288 8:16 9:64 10:6291456 11:48 12:64 13:0 14:0 15:0 16:12 17:0 18:0 19:0 20:0 21:0 22:1 23:0 24:0 25:0 26:0 27:0 28:0 29:0 30:0 31:0 32:0 33:0 34:0 35:0 36:0 37:2.412481e+09 38:1 39:0 40:0 41:0 42:0 43:1 44:0 45:0 46:0 47:0 48:0 49:0 50:0 51:0 52:0 53:0 54:1 55:7868235 56:786624 57:787392 58:757824 59:3.2883171e+10 60:2.2434832e+10 61:0 62:9.3607526e+08 63:3.2777703e+10 64:3.2777703e+10 65:191 66:0 67:0 68:1 69:1 70:0 71:0 72:1.3386469e-06 73:3.496322e-07 74:0 75:2.9089563e-07 76:-7.5977078e-08 
-32768 1:65536 2:2 3:64 4:65536 5:2 6:64 7:524288 8:16 9:64 10:6291456 11:48 12:64 13:0 14:0 15:0 16:12 17:0 18:0 19:0 20:0 21:0 22:1 23:0 24:0 25:0 26:0 27:0 28:0 29:0 30:0 31:0 32:0 33:0 34:0 35:0 36:0 37:2.412481e+09 38:1 39:0 40:0 41:0 42:0 43:1 44:0 45:0 46:0 47:0 48:0 49:0 50:0 51:0 52:0 53:0 54:1 55:7871263 56:786656 57:788224 58:788544 59:3.2883171e+10 60:2.2432657e+10 61:0 62:9.3609984e+08 63:3.2777703e+10 64:3.2777703e+10 65:194 66:0 67:0 68:1 69:1 70:0 71:0 72:1.2928112e-06 73:3.4963246e-07 74:0 75:3.0725952e-07 76:-8.3096359e-08 
-32768 1:65536 2:2 3:64 4:65536 5:2 6:64 7:524288 8:16 9:64 10:6291456 11:48 12:64 13:0 14:0 15:0 16:12 17:0 18:0 19:0 20:0 21:0 22:1 23:0 24:0 25:0 26:0 27:0 28:0 29:0 30:0 31:0 32:0 33:0 34:0 35:0 36:0 37:2.412481e+09 38:1 39:0 40:0 41:0 42:0 43:1 44:0 45:0 46:0 47:0 48:0 49:0 50:0 51:0 52:0 53:0 54:1 55:7871263 56:786656 57:788224 58:788544 59:3.2883171e+10 60:2.2432657e+10 61:0 62:9.3609984e+08 63:3.2777703e+10 64:3.2777703e+10 65:194 66:0 67:0 68:1 69:1 70:0 71:0 72:1.3386469e-06 73:3.496322e-07 74:0 75:2.9089563e-07 76:-7.5977078e-08 
-1.375 1:65536 2:2 3:64 4:65536 5:2 6:64 7:524288 8:16 9:64 10:6291456 11:48 12:64 13:0 14:0 15:0 16:12 17:0 18:0 19:0 20:0 21:0 22:1 23:0 24:0 25:0 26:0 27:0 28:0 29:0 30:0 31:0 32:0 33:0 34:0 35:0 36:0 37:2.412481e+09 38:1 39:0 40:0 41:0 42:0 43:1 44:0 45:0 46:0 47:0 48:0 49:0 50:0 51:0 52:0 53:0 54:1 55:7874292 56:786624 57:792672 58:790272 59:3.2883171e+10 60:2.2435025e+10 61:0 62:9.3617766e+08 63:3.2777703e+10 64:3.2777703e+10 65:191 66:0 67:0 68:1 69:1 70:0 71:0 72:1.3386469e-06 73:3.496322e-07 74:0 75:2.9089563e-07 76:-7.5977078e-08 
-32768 1:65536 2:2 3:64 4:65536 5:2 6:64 7:524288 8:16 9:64 10:6291456 11:48 12:64 13:0 14:0 15:0 16:12 17:0 18:0 19:0 20:0 21:0 22:1 23:0 24:0 25:0 26:0 27:0 28:0 29:0 30:0 31:0 32:0 33:0 34:0 35:0 36:0 37:2.412481e+09 38:1 39:0 40:0 41:0 42:0 43:1 44:0 45:0 46:0 47:0 48:0 49:0 50:0 51:0 52:0 53:0 54:1 55:7877322 56:786624 57:787392 58:784160 59:3.2883171e+10 60:2.2434947e+10 61:0 62:9.3618176e+08 63:3.2777703e+10 64:3.2777703e+10 65:191 66:0 67:0 68:1 69:1 70:0 71:0 72:1.3715555e-06 73:3.4963242e-07 74:0 75:2.8016669e-07 76:-7.141917e-08 
-32768 1:65536 2:2 3:64 4:65536 5:2 6:64 7:524288 8:16 9:64 10:6291456 11:48 12:64 13:0 14:0 15:0 16:12 17:0 18:0 19:0 20:0 21:0 22:1 23:0 24:0 25:0 26:0 27:0 28:0 29:0 30:0 31:0 32:0 33:0 34:0 35:0 36:0 37:2.412481e+09 38:1 39:0 40:0 41:0 42:0 43:1 44:0 45:0 46:0 47:0 48:0 49:0 50:0 51:0 52:0 53:0 54:1 55:7880351 56:790304 57:788352 58:784512 59:3.2883171e+10 60:2.243514e+10 61:0 62:9.3622272e+08 63:3.2777703e+10 64:3.2777703e+10 65:191 66:0 67:0 68:1 69:1 70:0 71:0 72:1.2928112e-06 73:3.4963246e-07 74:0 75:3.0725952e-07 76:-8.3096359e-08 
-32768 1:65536 2:2 3:64 4:65536 5:2 6:64 7:524288 8:16 9:64 10:6291456 11:48 12:64 13:0 14:0 15:0 16:12 17:0 18:0 19:0 20:0 21:0 22:1 23:0 24:0 25:0 26:0 27:0 28:0 29:0 30:0 31:0 32:0 33:0 34:0 35:0 36:0 37:2.412481e+09 38:1 39:0 40:0 41:0 42:0 43:1 44:0 45:0 46:0 47:0 48:0 49:0 50:0 51:0 52:0 53:0 54:1 55:7880351 56:790304 57:788352 58:784512 59:3.2883171e+10 60:2.243514e+10 61:0 62:9.3622272e+08 63:3.2777703e+10 64:3.2777703e+10 65:191 66:0 67:0 68:1 69:1 70:0 71:0 72:1.3386469e-06 73:3.496322e-07 74:0 75:2.9089563e-07 76:-7.5977078e-08 
-32768 1:65536 2:2 3:64 4:65536 5:2 6:64 7:524288 8:16 9:64 10:6291456 11:48 12:64 13:0 14:0 15:0 16:12 17:0 18:0 19:0 20:0 21:0 22:1 23:0 24:0 25:0 26:0 27:0 28:0 29:0 30:0 31:0 32:0 33:0 34:0 35:0 36:0 37:2.412481e+09 38:1 39:0 40:0 41:0 42:0 43:1 44:0 45:0 46:0 47:0 48:0 49:0 50:0 51:0 52:0 53:0 54:1 55:7883378 56:786624 57:787392 58:785568 59:3.2883171e+10 60:2.2433886e+10 61:0 62:9.362391e+08 63:3.2777703e+10 64:3.2777703e+10 65:191 66:0 67:0 68:1 69:1 70:0 71:0 72:1.3715555e-06 73:3.4963242e-07 74:0 75:2.8016669e-07 76:-7.141917e-08 
-32768 1:65536 2:2 3:64 4:65536 5:2 6:64 7:524288 8:16 9:64 10:6291456 11:48 12:64 13:0 14:0 15:0 16:12 17:0 18:0 19:0 20:0 21:0 22:1 23:0 24:0 25:0 26:0 27:0 28:0 29:0 30:0 31:0 32:0 33:0 34:0 35:0 36:0 37:2.412481e+09 38:1 39:0 40:0 41:0 42:0 43:1 44:0 45:0 46:0 47:0 48:0 49:0 50:0 51:0 52:0 53:0 54:1 55:7883378 56:786624 57:787392 58:785568 59:3.2883171e+10 60:2.2433886e+10 61:0 62:9.362391e+08 63:3.2777703e+10 64:3.2777703e+10 65:191 66:0 67:0 68:1 69:1 70:0 71:0 72:1.2928112e-06 73:3.4963246e-07 74:0 75:3.0725952e-07 76:-8.3096359e-08 
-32768 1:65536 2:2 3:64 4:65536 5:2 6:64 7:524288 8:16 9:64 10:6291456 11:48 12:64 13:0 14:0 15:0 16:12 17:0 18:0 19:0 20:0 21:0 22:1 23:0 24:0 25:0 26:0 27:0 28:0 29:0 30:0 31:0 32:0 33:0 34:0 35:0 36:0 37:2.412481e+09 38:1 39:0 40:0 41:0 42:0 43:1 44:0 45:0 46:0 47:0 48:0 49:0 50:0 51:0 52:0 53:0 54:1 55:7883378 56:786624 57:787392 58:785568 59:3.2883171e+10 60:2.2433886e+10 61:0 62:9.362391e+08 63:3.2777703e+10 64:3.2777703e+10 65:191 66:0 67:0 68:1 69:1 70:0 71:0 72:1.3386469e-06 73:3.496322e-07 74:0 75:2.9089563e-07 76:-7.5977078e-08 
-32768 1:65536 2:2 3:64 4:65536 5:2 6:64 7:524288 8:16 9:64 10:6291456 11:48 12:64 13:0 14:0 15:0 16:12 17:0 18:0 19:0 20:0 21:0 22:1 23:0 24:0 25:0 26:0 27:0 28:0 29:0 30:0 31:0 32:0 33:0 34:0 35:0 36:0 37:2.412481e+09 38:1 39:0 40:0 41:0 42:0 43:1 44:0 45:0 46:0 47:0 48:0 49:0 50:0 51:0 52:0 53:0 54:1 55:7886406 56:786624 57:787392 58:786528 59:3.2883171e+10 60:2.2434828e+10 61:0 62:9.3625549e+08 63:3.2777703e+10 64:3.2777703e+10 65:191 66:0 67:0 68:1 69:1 70:0 71:0 72:1.3715555e-06 73:3.4963242e-07 74:0 75:2.8016669e-07 76:-7.141917e-08 
-32768 1:65536 2:2 3:64 4:65536 5:2 6:64 7:524288 8:16 9:64 10:6291456 11:48 12:64 13:0 14:0 15:0 16:12 17:0 18:0 19:0 20:0 21:0 22:1 23:0 24:0 25:0 26:0 27:0 28:0 29:0 30:0 31:0 32:0 33:0 34:0 35:0 36:0 37:2.412481e+09 38:1 39:0 40:0 41:0 42:0 43:1 44:0 45:0 46:0 47:0 48:0 49:0 50:0 51:0 52:0 53:0 54:1 55:7889443 56:787040 57:787648 58:789408 59:3.2883171e+10 60:2.2434738e+10 61:0 62:9.3628006e+08 63:3.2777703e+10 64:3.2777703e+10 65:192 66:0 67:0 68:1 69:1 70:0 71:0 72:1.2928112e-06 73:3.4963246e-07 74:0 75:3.0725952e-07 76:-8.3096359e-08 
-32768 1:65536 2:2 3:64 4:65536 5:2 6:64 7:524288 8:16 9:64 10:6291456 11:48 12:64 13:0 14:0 15:0 16:12 17:0 18:0 19:0 20:0 21:0 22:1 23:0 24:0 25:0 26:0 27:0 28:0 29:0 30:0 31:0 32:0 33:0 34:0 35:0 36:0 37:2.412481e+09 38:1 39:0 40:0 41:0 42:0 43:1 44:0 45:0 46:0 47:0 48:0 49:0 50:0 51:0 52:0 53:0 54:1 55:7889443 56:787040 57:787648 58:789408 59:3.2883171e+10 60:2.2434738e+10 61:0 62:9.3628006e+08 63:3.2777703e+10 64:3.2777703e+10 65:192 66:0 67:0 68:1 69:1 70:0 71:0 72:1.3386469e-06 73:3.496322e-07 74:0 75:2.9089563e-07 76:-7.5977078e-08 
-1.5 1:65536 2:2 3:64 4:65536 5:2 6:64 7:524288 8:16 9:64 10:6291456 11:48 12:64 13:0 14:0 15:0 16:12 17:0 18:0 19:0 20:0 21:0 22:1 23:0 24:0 25:0 26:0 27:0 28:0 29:0 30:0 31:0 32:0 33:0 34:0 35:0 36:0 37:2.412481e+09 38:1 39:0 40:0 41:0 42:0 43:1 44:0 45:0 46:0 47:0 48:0 49:0 50:0 51:0 52:0 53:0 54:1 55:7892483 56:787424 57:790592 58:789440 59:3.2883171e+10 60:2.2434632e+10 61:0 62:9.3630464e+08 63:3.2777703e+10 64:3.2777703e+10 65:191 66:0 67:0 68:1 69:1 70:0 71:0 72:1.3715555e-06 73:3.4963242e-07 74:0 75:2.8016669e-07 76:-7.141917e-08 
-32768 1:65536 2:2 3:64 4:65536 5:2 6:64 7:524288 8:16 9:64 10:6291456 11:48 12:64 13:0 14:0 15:0 16:12 17:0 18:0 19:0 20:0 21:0 22:1 23:0 24:0 25:0 26:0 27:0 28:0 29:0 30:0 31:0 32:0 33:0 34:0 35:0 36:0 37:2.412481e+09 38:1 39:0 40:0 41:0 42:0 43:1 44:0 45:0 46:0 47:0 48:0 49:0 50:0 51:0 52:0 53:0 54:1 55:7892483 56:787424 57:790592 58:789440 59:3.2883171e+10 60:2.2434632e+10 61:0 62:9.3630464e+08 63:3.2777703e+10 64:3.2777703e+10 65:191 66:0 67:0 68:1 69:1 70:0 71:0 72:1.2928112e-06 73:3.4963246e-07 74:0 75:3.0725952e-07 76:-8.3096359e-08 
-32767.875 1:65536 2:2 3:64 4:65536 5:2 6:64 7:524288 8:16 9:64 10:6291456 11:48 12:64 13:0 14:0 15:0 16:12 17:0 18:0 19:0 20:0 21:0 22:1 23:0 24:0 25:0 26:0 27:0 28:0 29:0 30:0 31:0 32:0 33:0 34:0 35:0 36:0 37:2.412481e+09 38:1 39:0 40:0 41:0 42:0 43:1 44:0 45:0 46:0 47:0 48:0 49:0 50:0 51:0 52:0 53:0 54:1 55:7892483 56:787424 57:790592 58:789440 59:3.2883171e+10 60:2.2434632e+10 61:0 62:9.3630464e+08 63:3.2777703e+10 64:3.2777703e+10 65:191 66:0 67:0 68:1 69:1 70:0 71:0 72:1.3386469e-06 73:3.496322e-07 74:0 75:2.9089563e-07 76:-7.5977078e-08 
-32768 1:65536 2:2 3:64 4:65536 5:2 6:64 7:524288 8:16 9:64 10:6291456 11:48 12:64 13:0 14:0 15:0 16:12 17:0 18:0 19:0 20:0 21:0 22:1 23:0 24:0 25:0 26:0 27:0 28:0 29:0 30:0 31:0 32:0 33:0 34:0 35:0 36:0 37:2.412481e+09 38:1 39:0 40:0 41:0 42:0 43:1 44:0 45:0 46:0 47:0 48:0 49:0 50:0 51:0 52:0 53:0 54:1 55:7895522 56:809856 57:806784 58:792928 59:3.2883171e+10 60:2.2434484e+10 61:0 62:9.3631283e+08 63:3.2777703e+10 64:3.2777703e+10 65:191 66:0 67:0 68:1 69:1 70:0 71:0 72:1.3715555e-06 73:3.4963242e-07 74:0 75:2.8016669e-07 76:-7.141917e-08 
-32768 1:65536 2:2 3:64 4:65536 5:2 6:64 7:524288 8:16 9:64 10:6291456 11:48 12:64 13:0 14:0 15:0 16:12 17:0 18:0 19:0 20:0 21:0 22:1 23:0 24:0 25:0 26:0 27:0 28:0 29:0 30:0 31:0 32:0 33:0 34:0 35:0 36:0 37:2.412481e+09 38:1 39:0 40:0 41:0 42:0 43:1 44:0 45:0 46:0 47:0 48:0 49:0 50:0 51:0 52:0 53:0 54:1 55:7895522 56:809856 57:806784 58:792928 59:3.2883171e+10 60:2.2434484e+10 61:0 62:9.3631283e+08 63:3.2777703e+10 64:3.2777703e+10 65:191 66:0 67:0 68:1 69:1 70:0 71:0 72:1.2928112e-06 73:3.4963246e-07 74:0 75:3.0725952e-07 76:-8.3096359e-08 
-32768 1:65536 2:2 3:64 4:65536 5:2 6:64 7:524288 8:16 9:64 10:6291456 11:48 12:64 13:0 14:0 15:0 16:12 17:0 18:0 19:0 20:0 21:0 22:1 23:0 24:0 25:0 26:0 27:0 28:0 29:0 30:0 31:0 32:0 33:0 34:0 35:0 36:0 37:2.412481e+09 38:1 39:0 40:0 41:0 42:0 43:1 44:0 45:0 46:0 47:0 48:0 49:0 50:0 51:0 52:0 53:0 54:1 55:7895522 56:809856 57:806784 58:792928 59:3.2883171e+10 60:2.2434484e+10 61:0 62:9.3631283e+08 63:3.2777703e+10 64:3.2777703e+10 65:191 66:0 67:0 68:1 69:1 70:0 71:0 72:1.3386469e-06 73:3.496322e-07 74:0 75:2.9089563e-07 76:-7.5977078e-08 
-32768 1:65536 2:2 3:64 4:65536 5:2 6:64 7:524288 8:16 9:64 10:6291456 11:48 12:64 13:0 14:0 15:0 16:12 17:0 18:0 19:0 20:0 21:0 22:1 23:0 24:0 25:0 26:0 27:0 28:0 29:0 30:0 31:0 32:0 33:0 34:0 35:0 36:0 37:2.412481e+09 38:1 39:0 40:0 41:0 42:0 43:1 44:0 45:0 46:0 47:0 48:0 49:0 50:0 51:0 52:0 53:0 54:1 55:7898559 56:786624 57:787392 58:784160 59:3.2883171e+10 60:2.243491e+10 61:0 62:9.3631693e+08 63:3.2777703e+10 64:3.2777703e+10 65:190 66:0 67:0 68:1 69:1 70:0 71:0 72:1.3715555e-06 73:3.4963242e-07 74:0 75:2.8016669e-07 76:-7.141917e-08 
-32768 1:65536 2:2 3:64 4:65536 5:2 6:64 7:524288 8:16 9:64 10:6291456 11:48 12:64 13:0 14:0 15:0 16:12 17:0 18:0 19:0 20:0 21:0 22:1 23:0 24:0 25:0 26:0 27:0 28:0 29:0 30:0 31:0 32:0 33:0 34:0 35:0 36:0 37:2.412481e+09 38:1 39:0 40:0 41:0 42:0 43:1 44:0 45:0 46:0 47:0 48:0 49:0 50:0 51:0 52:0 53:0 54:1 55:7898559 56:786624 57:787392 58:784160 59:3.2883171e+10 60:2.243491e+10 61:0 62:9.3631693e+08 63:3.2777703e+10 64:3.2777703e+10 65:190 66:0 67:0 68:1 69:1 70:0 71:0 72:1.2928112e-06 73:3.4963246e-07 74:0 75:3.0725952e-07 76:-8.3096359e-08 
-32768 1:65536 2:2 3:64 4:65536 5:2 6:64 7:524288 8:16 9:64 10:6291456 11:48 12:64 13:0 14:0 15:0 16:12 17:0 18:0 19:0 20:0 21:0 22:1 23:0 24:0 25:0 26:0 27:0 28:0 29:0 30:0 31:0 32:0 33:0 34:0 35:0 36:0 37:2.412481e+09 38:1 39:0 40:0 41:0 42:0 43:1 44:0 45:0 46:0 47:0 48:0 49:0 50:0 51:0 52:0 53:0 54:1 55:7898559 56:786624 57:787392 58:784160 59:3.2883171e+10 60:2.243491e+10 61:0 62:9.3631693e+08 63:3.2777703e+10 64:3.2777703e+10 65:190 66:0 67:0 68:1 69:1 70:0 71:0 72:1.3386469e-06 73:3.496322e-07 74:0 75:2.9089563e-07 76:-7.5977078e-08 
-32768 1:65536 2:2 3:64 4:65536 5:2 6:64 7:524288 8:16 9:64 10:6291456 11:48 12:64 13:0 14:0 15:0 16:12 17:0 18:0 19:0 20:0 21:0 22:1 23:0 24:0 25:0 26:0 27:0 28:0 29:0 30:0 31:0 32:0 33:0 34:0 35:0 36:0 37:2.412481e+09 38:1 39:0 40:0 41:0 42:0 43:1 44:0 45:0 46:0 47:0 48:0 49:0 50:0 51:0 52:0 53:0 54:1 55:7901641 56:771232 57:784352 58:783456 59:3.2883171e+10 60:2.243301e+10 61:0 62:9.3632102e+08 63:3.2777703e+10 64:3.2777703e+10 65:191 66:0 67:0 68:1 69:1 70:0 71:0 72:1.3715555e-06 73:3.4963242e-07 74:0 75:2.8016669e-07 76:-7.141917e-08 
-32768 1:65536 2:2 3:64 4:65536 5:2 6:64 7:524288 8:16 9:64 10:6291456 11:48 12:64 13:0 14:0 15:0 16:12 17:0 18:0 19:0 20:0 21:0 22:1 23:0 24:0 25:0 26:0 27:0 28:0 29:0 30:0 31:0 32:0 33:0 34:0 35:0 36:0 37:2.412481e+09 38:1 39:0 40:0 41:0 42:0 43:1 44:0 45:0 46:0 47:0 48:0 49:0 50:0 51:0 52:0 53:0 54:1 55:7901641 56:771232 57:784352 58:783456 59:3.2883171e+10 60:2.243301e+10 61:0 62:9.3632102e+08 63:3.2777703e+10 64:3.2777703e+10 65:191 66:0 67:0 68:1 69:1 70:0 71:0 72:1.3386469e-06 73:3.496322e-07 74:0 75:2.9089563e-07 76:-7.5977078e-08 
-1.5 1:65536 2:2 3:64 4:65536 5:2 6:64 7:524288 8:16 9:64 10:6291456 11:48 12:64 13:0 14:0 15:0 16:12 17:0 18:0 19:0 20:0 21:0 22:1 23:0 24:0 25:0 26:0 27:0 28:0 29:0 30:0 31:0 32:0 33:0 34:0 35:0 36:0 37:2.412481e+09 38:1 39:0 40:0 41:0 42:0 43:1 44:0 45:0 46:0 47:0 48:0 49:0 50:0 51:0 52:0 53:0 54:1 55:7904674 56:786624 57:787392 58:784160 59:3.2883171e+10 60:2.2434578e+10 61:0 62:9.3632922e+08 63:3.2777703e+10 64:3.2777703e+10 65:191 66:0 67:0 68:1 69:1 70:0 71:0 72:1.3715555e-06 73:3.4963242e-07 74:0 75:2.8016669e-07 76:-7.141917e-08 
-32767.875 1:65536 2:2 3:64 4:65536 5:2 6:64 7:524288 8:16 9:64 10:6291456 11:48 12:64 13:0 14:0 15:0 16:12 17:0 18:0 19:0 20:0 21:0 22:1 23:0 24:0 25:0 26:0 27:0 28:0 29:0 30:0 31:0 32:0 33:0 34:0 35:0 36:0 37:2.412481e+09 38:1 39:0 40:0 41:0 42:0 43:1 44:0 45:0 46:0 47:0 48:0 49:0 50:0 51:0 52:0 53:0 54:1 55:7904674 56:786624 57:787392 58:784160 59:3.2883171e+10 60:2.2434578e+10 61:0 62:9.3632922e+08 63:3.2777703e+10 64:3.2777703e+10 65:191 66:0 67:0 68:1 69:1 70:0 71:0 72:1.2928112e-06 73:3.4963246e-07 74:0 75:3.0725952e-07 76:-8.3096359e-08 
-32768 1:65536 2:2 3:64 4:65536 5:2 6:64 7:524288 8:16 9:64 10:6291456 11:48 12:64 13:0 14:0 15:0 16:12 17:0 18:0 19:0 20:0 21:0 22:1 23:0 24:0 25:0 26:0 27:0 28:0 29:0 30:0 31:0 32:0 33:0 34:0 35:0 36:0 37:2.412481e+09 38:1 39:0 40:0 41:0 42:0 43:1 44:0 45:0 46:0 47:0 48:0 49:0 50:0 51:0 52:0 53:0 54:1 55:7907711 56:786624 57:787392 58:789408 59:3.2883171e+10 60:2.2434849e+10 61:0 62:9.363456e+08 63:3.2777703e+10 64:3.2777703e+10 65:191 66:0 67:0 68:1 69:1 70:0 71:0 72:1.3715555e-06 73:3.4963242e-07 74:0 75:2.8016669e-07 76:-7.141917e-08 
-32768 1:65536 2:2 3:64 4:65536 5:2 6:64 7:524288 8:16 9:64 10:6291456 11:48 12:64 13:0 14:0 15:0 16:12 17:0 18:0 19:0 20:0 21:0 22:1 23:0 24:0 25:0 26:0 27:0 28:0 29:0 30:0 31:0 32:0 33:0 34:0 35:0 36:0 37:2.412481e+09 38:1 39:0 40:0 41:0 42:0 43:1 44:0 45:0 46:0 47:0 48:0 49:0 50:0 51:0 52:0 53:0 54:1 55:7907711 56:786624 57:787392 58:789408 59:3.2883171e+10 60:2.2434849e+10 61:0 62:9.363456e+08 63:3.2777703e+10 64:3.2777703e+10 65:191 66:0 67:0 68:1 69:1 70:0 71:0 72:1.2928112e-06 73:3.4963246e-07 74:0 75:3.0725952e-07 76:-8.3096359e-08 
-32768 1:65536 2:2 3:64 4:65536 5:2 6:64 7:524288 8:16 9:64 10:6291456 11:48 12:64 13:0 14:0 15:0 16:12 17:0 18:0 19:0 20:0 21:0 22:1 23:0 24:0 25:0 26:0 27:0 28:0 29:0 30:0 31:0 32:0 33:0 34:0 35:0 36:0 37:2.412481e+09 38:1 39:0 40:0 41:0 42:0 43:1 44:0 45:0 46:0 47:0 48:0 49:0 50:0 51:0 52:0 53:0 54:1 55:7910797 56:770880 57:785056 58:788352 59:3.2883171e+10 60:2.2434648e+10 61:0 62:9.363456e+08 63:3.2777703e+10 64:3.2777703e+10 65:191 66:0 67:0 68:1 69:1 70:0 71:0 72:1.3715555e-06 73:3.4963242e-07 74:0 75:2.8016669e-07 76:-7.141917e-08 
-32768 1:65536 2:2 3:64 4:65536 5:2 6:64 7:524288 8:16 9:64 10:6291456 11:48 12:64 13:0 14:0 15:0 16:12 17:0 18:0 19:0 20:0 21:0 22:1 23:0 24:0 25:0 26:0 27:0 28:0 29:0 30:0 31:0 32:0 33:0 34:0 35:0 36:0 37:2.412481e+09 38:1 39:0 40:0 41:0 42:0 43:1 44:0 45:0 46:0 47:0 48:0 49:0 50:0 51:0 52:0 53:0 54:1 55:7910797 56:770880 57:785056 58:788352 59:3.2883171e+10 60:2.2434648e+10 61:0 62:9.363456e+08 63:3.2777703e+10 64:3.2777703e+10 65:191 66:0 67:0 68:1 69:1 70:0 71:0 72:1.3386469e-06 73:3.496322e-07 74:0 75:2.9089563e-07 76:-7.5977078e-08 
-32768 1:65536 2:2 3:64 4:65536 5:2 6:64 7:524288 8:16 9:64 10:6291456 11:48 12:64 13:0 14:0 15:0 16:12 17:0 18:0 19:0 20:0 21:0 22:1 23:0 24:0 25:0 26:0 27:0 28:0 29:0 30:0 31:0 32:0 33:0 34:0 35:0 36:0 37:2.412481e+09 38:1 39:0 40:0 41:0 42:0 43:1 44:0 45:0 46:0 47:0 48:0 49:0 50:0 51:0 52:0 53:0 54:1 55:7913881 56:786624 57:792160 58:790272 59:3.2883171e+10 60:2.2434603e+10 61:0 62:9.3636608e+08 63:3.2777703e+10 64:3.2777703e+10 65:191 66:0 67:0 68:1 69:1 70:0 71:0 72:1.3715555e-06 73:3.4963242e-07 74:0 75:2.8016669e-07 76:-7.141917e-08 
-32768 1:65536 2:2 3:64 4:65536 5:2 6:64 7:524288 8:16 9:64 10:6291456 11:48 12:64 13:0 14:0 15:0 16:12 17:0 18:0 19:0 20:0 21:0 22:1 23:0 24:0 25:0 26:0 27:0 28:0 29:0 30:0 31:0 32:0 33:0 34:0 35:0 36:0 37:2.412481e+09 38:1 39:0 40:0 41:0 42:0 43:1 44:0 45:0 46:0 47:0 48:0 49:0 50:0 51:0 52:0 53:0 54:1 55:7913881 56:786624 57:792160 58:790272 59:3.2883171e+10 60:2.2434603e+10 61:0 62:9.3636608e+08 63:3.2777703e+10 64:3.2777703e+10 65:191 66:0 67:0 68:1 69:1 70:0 71:0 72:1.2928112e-06 73:3.4963246e-07 74:0 75:3.0725952e-07 76:-8.3096359e-08 
-1.5 1:65536 2:2 3:64 4:65536 5:2 6:64 7:524288 8:16 9:64 10:6291456 11:48 12:64 13:0 14:0 15:0 16:12 17:0 18:0 19:0 20:0 21:0 22:1 23:0 24:0 25:0 26:0 27:0 28:0 29:0 30:0 31:0 32:0 33:0 34:0 35:0 36:0 37:2.412481e+09 38:1 39:0 40:0 41:0 42:0 43:1 44:0 45:0 46:0 47:0 48:0 49:0 50:0 51:0 52:0 53:0 54:1 55:7916911 56:789184 57:788224 58:783808 59:3.2883171e+10 60:2.243473e+10 61:0 62:9.3636608e+08 63:3.2777703e+10 64:3.2777703e+10 65:191 66:0 67:0 68:1 69:1 70:0 71:0 72:1.3715555e-06 73:3.4963242e-07 74:0 75:2.8016669e-07 76:-7.141917e-08 
-32768 1:65536 2:2 3:64 4:65536 5:2 6:64 7:524288 8:16 9:64 10:6291456 11:48 12:64 13:0 14:0 15:0 16:12 17:0 18:0 19:0 20:0 21:0 22:1 23:0 24:0 25:0 26:0 27:0 28:0 29:0 30:0 31:0 32:0 33:0 34:0 35:0 36:0 37:2.412481e+09 38:1 39:0 40:0 41:0 42:0 43:1 44:0 45:0 46:0 47:0 48:0 49:0 50:0 51:0 52:0 53:0 54:1 55:7916911 56:789184 57:788224 58:783808 59:3.2883171e+10 60:2.243473e+10 61:0 62:9.3636608e+08 63:3.2777703e+10 64:3.2777703e+10 65:191 66:0 67:0 68:1 69:1 70:0 71:0 72:1.2928112e-06 73:3.4963246e-07 74:0 75:3.0725952e-07 76:-8.3096359e-08 
-32767.875 1:65536 2:2 3:64 4:65536 5:2 6:64 7:524288 8:16 9:64 10:6291456 11:48 12:64 13:0 14:0 15:0 16:12 17:0 18:0 19:0 20:0 21:0 22:1 23:0 24:0 25:0 26:0 27:0 28:0 29:0 30:0 31:0 32:0 33:0 34:0 35:0 36:0 37:2.412481e+09 38:1 39:0 40:0 41:0 42:0 43:1 44:0 45:0 46:0 47:0 48:0 49:0 50:0 51:0 52:0 53:0 54:1 55:7916911 56:789184 57:788224 58:783808 59:3.2883171e+10 60:2.243473e+10 61:0 62:9.3636608e+08 63:3.2777703e+10 64:3.2777703e+10 65:191 66:0 67:0 68:1 69:1 70:0 71:0 72:1.3386469e-06 73:3.496322e-07 74:0 75:2.9089563e-07 76:-7.5977078e-08 
-32768 1:65536 2:2 3:64 4:65536 5:2 6:64 7:524288 8:16 9:64 10:6291456 11:48 12:64 13:0 14:0 15:0 16:12 17:0 18:0 19:0 20:0 21:0 22:1 23:0 24:0 25:0 26:0 27:0 28:0 29:0 30:0 31:0 32:0 33:0 34:0 35:0 36:0 37:2.412481e+09 38:1 39:0 40:0 41:0 42:0 43:1 44:0 45:0 46:0 47:0 48:0 49:0 50:0 51:0 52:0 53:0 54:1 55:7919957 56:786624 57:787392 58:784512 59:3.2883171e+10 60:2.2435365e+10 61:0 62:9.3637427e+08 63:3.2777703e+10 64:3.2777703e+10 65:191 66:0 67:0 68:1 69:1 70:0 71:0 72:1.3715555e-06 73:3.4963242e-07 74:0 75:2.8016669e-07 76:-7.141917e-08 
-32768 1:65536 2:2 3:64 4:65536 5:2 6:64 7:524288 8:16 9:64 10:6291456 11:48 12:64 13:0 14:0 15:0 16:12 17:0 18:0 19:0 20:0 21:0 22:1 23:0 24:0 25:0 26:0 27:0 28:0 29:0 30:0 31:0 32:0 33:0 34:0 35:0 36:0 37:2.412481e+09 38:1 39:0 40:0 41:0 42:0 43:1 44:0 45:0 46:0 47:0 48:0 49:0 50:0 51:0 52:0 53:0 54:1 55:7919957 56:786624 57:787392 58:784512 59:3.2883171e+10 60:2.2435365e+10 61:0 62:9.3637427e+08 63:3.2777703e+10 64:3.2777703e+10 65:191 66:0 67:0 68:1 69:1 70:0 71:0 72:1.3386469e-06 73:3.496322e-07 74:0 75:2.9089563e-07 76:-7.5977078e-08 
-32768 1:65536 2:2 3:64 4:65536 5:2 6:64 7:524288 8:16 9:64 10:6291456 11:48 12:64 13:0 14:0 15:0 16:12 17:0 18:0 19:0 20:0 21:0 22:1 23:0 24:0 25:0 26:0 27:0 28:0 29:0 30:0 31:0 32:0 33:0 34:0 35:0 36:0 37:2.412481e+09 38:1 39:0 40:0 41:0 42:0 43:1 44:0 45:0 46:0 47:0 48:0 49:0 50:0 51:0 52:0 53:0 54:1 55:7922998 56:786624 57:787392 58:786976 59:3.2883171e+10 60:2.2435234e+10 61:0 62:9.3637427e+08 63:3.2777703e+10 64:3.2777703e+10 65:191 66:0 67:0 68:1 69:1 70:0 71:0 72:1.2928112e-06 73:3.4963246e-07 74:0 75:3.0725952e-07 76:-8.3096359e-08 
-32768 1:65536 2:2 3:64 4:65536 5:2 6:64 7:524288 8:16 9:64 10:6291456 11:48 12:64 13:0 14:0 15:0 16:12 17:0 18:0 19:0 20:0 21:0 22:1 23:0 24:0 25:0 26:0 27:0 28:0 29:0 30:0 31:0 32:0 33:0 34:0 35:0 36:0 37:2.412481e+09 38:1 39:0 40:0 41:0 42:0 43:1 44:0 45:0 46:0 47:0 48:0 49:0 50:0 51:0 52:0 53:0 54:1 55:7922998 56:786624 57:787392 58:786976 59:3.2883171e+10 60:2.2435234e+10 61:0 62:9.3637427e+08 63:3.2777703e+10 64:3.2777703e+10 65:191 66:0 67:0 68:1 69:1 70:0 71:0 72:1.3386469e-06 73:3.496322e-07 74:0 75:2.9089563e-07 76:-7.5977078e-08 
-32768 1:65536 2:2 3:64 4:65536 5:2 6:64 7:524288 8:16 9:64 10:6291456 11:48 12:64 13:0 14:0 15:0 16:12 17:0 18:0 19:0 20:0 21:0 22:1 23:0 24:0 25:0 26:0 27:0 28:0 29:0 30:0 31:0 32:0 33:0 34:0 35:0 36:0 37:2.412481e+09 38:1 39:0 40:0 41:0 42:0 43:1 44:0 45:0 46:0 47:0 48:0 49:0 50:0 51:0 52:0 53:0 54:1 55:7926082 56:786624 57:788288 58:788000 59:3.2883171e+10 60:2.2433821e+10 61:0 62:9.3642342e+08 63:3.2777703e+10 64:3.2777703e+10 65:191 66:0 67:0 68:1 69:1 70:0 71:0 72:1.2928112e-06 73:3.4963246e-07 74:0 75:3.0725952e-07 76:-8.3096359e-08 
-32768 1:65536 2:2 3:64 4:65536 5:2 6:64 7:524288 8:16 9:64 10:6291456 11:48 12:64 13:0 14:0 15:0 16:12 17:0 18:0 19:0 20:0 21:0 22:1 23:0 24:0 25:0 26:0 27:0 28:0 29:0 30:0 31:0 32:0 33:0 34:0 35:0 36:0 37:2.412481e+09 38:1 39:0 40:0 41:0 42:0 43:1 44:0 45:0 46:0 47:0 48:0 49:0 50:0 51:0 52:0 53:0 54:1 55:7926082 56:786624 57:788288 58:788000 59:3.2883171e+10 60:2.2433821e+10 61:0 62:9.3642342e+08 63:3.2777703e+10 64:3.2777703e+10 65:191 66:0 67:0 68:1 69:1 70:0 71:0 72:1.3386469e-06 73:3.496322e-07 74:0 75:2.9089563e-07 76:-7.5977078e-08 
