svm_type c_svc
kernel_type rbf
gamma 2
nr_class 2
total_sv 88
rho -0.138106
label 0 1
probA -4.3233
probB 0.116762
nr_sv 50 38
SV
0.8545762748588992 55:-5 56:-0.960591 57:-3.64479 58:-5 60:3.03328 62:-5 65:-2.5 72:-5 73:5 75:-5 76:5 
0.8546380441511696 55:-5 56:-0.960591 57:-3.64479 58:-5 60:3.03328 62:-5 65:-2.5 72:-5 73:4.22944 75:-4.43624 76:3.7829 
0.6770802089189821 55:-4.47655 56:-0.952381 57:-3.27389 58:3.75114 60:-5 62:-4.29412 65:5 72:-5 73:5 75:-5 76:5 
0.7721585002756778 55:-4.47655 56:-0.952381 57:-3.27389 58:3.75114 60:-5 62:-4.29412 65:5 72:-5 73:4.22944 75:-4.43624 76:3.7829 
0.4174399265123891 55:-4.47655 56:-0.952381 57:-3.27389 58:3.75114 60:-5 62:-4.29412 65:5 72:-5 73:4.67799 75:-4.76579 76:4.48339 
0.6761735999010521 55:-3.42913 56:-0.960591 57:-3.64479 58:2.50228 60:3.45688 62:-1.94118 65:-2.5 72:-5 73:5 75:-5 76:5 
0.7708807451543137 55:-3.42913 56:-0.960591 57:-3.64479 58:2.50228 60:3.45688 62:-1.94118 65:-2.5 72:-5 73:4.22944 75:-4.43624 76:3.7829 
0.4164091710609655 55:-3.42913 56:-0.960591 57:-3.64479 58:2.50228 60:3.45688 62:-1.94118 65:-2.5 72:-5 73:4.67799 75:-4.76579 76:4.48339 
0.6766289182402636 55:-2.90551 56:-0.0164204 57:-3.21683 58:2.60255 60:4.16793 62:-0.764706 65:-2.5 72:-5 73:5 75:-5 76:5 
0.7709767923570969 55:-2.90551 56:-0.0164204 57:-3.21683 58:2.60255 60:4.16793 62:-0.764706 65:-2.5 72:-5 73:4.22944 75:-4.43624 76:3.7829 
0.4159794466734686 55:-2.90551 56:-0.0164204 57:-3.21683 58:2.60255 60:4.16793 62:-0.764706 65:-2.5 72:-5 73:4.67799 75:-4.76579 76:4.48339 
0.6769885374147212 55:-2.38223 56:-0.960591 57:-3.64479 58:2.90337 60:-0.461422 62:-0.294118 65:-2.5 72:-5 73:5 75:-5 76:5 
0.7721056361925396 55:-2.38223 56:-0.960591 57:-3.64479 58:2.90337 60:-0.461422 62:-0.294118 65:-2.5 72:-5 73:4.22944 75:-4.43624 76:3.7829 
0.4174442271929685 55:-2.38223 56:-0.960591 57:-3.64479 58:2.90337 60:-0.461422 62:-0.294118 65:-2.5 72:-5 73:4.67799 75:-4.76579 76:4.48339 
0.7172106520464608 55:-1.85878 56:-0.960591 57:-3.64479 58:3.17685 60:3.01815 62:0.176471 65:-2.5 72:-5 73:4.22944 75:-4.43624 76:3.7829 
0.716788051891936 55:-1.85878 56:-0.960591 57:-3.64479 58:3.17685 60:3.01815 62:0.176471 65:-2.5 72:-5 73:4.67799 75:-4.76579 76:4.48339 
0.6776015097969779 55:-1.33378 56:-0.853859 57:-3.53067 58:3.99727 60:2.68533 62:0.882353 72:-5 73:5 75:-5 76:5 
0.7721839282277012 55:-1.33378 56:-0.853859 57:-3.53067 58:3.99727 60:2.68533 62:0.882353 72:-5 73:4.22944 75:-4.43624 76:3.7829 
0.4166515862992916 55:-1.33378 56:-0.853859 57:-3.53067 58:3.99727 60:2.68533 62:0.882353 72:-5 73:4.67799 75:-4.76579 76:4.48339 
0.7174857753052035 55:-0.808253 56:-0.755337 57:-2.21826 58:4.00638 60:2.29198 62:1.58824 65:-2.5 72:-5 73:4.22944 75:-4.43624 76:3.7829 
0.7173301974485491 55:-0.808253 56:-0.755337 57:-2.21826 58:4.00638 60:2.29198 62:1.58824 65:-2.5 72:-5 73:4.67799 75:-4.76579 76:4.48339 
0.6773156830005425 55:-0.282901 56:5 57:5 58:5 60:1.74735 62:1.82353 65:-2.5 72:-5 73:5 75:-5 76:5 
0.7717805769776852 55:-0.282901 56:5 57:5 58:5 60:1.74735 62:1.82353 65:-2.5 72:-5 73:4.22944 75:-4.43624 76:3.7829 
0.4174790337940247 55:-0.282901 56:5 57:5 58:5 60:1.74735 62:1.82353 65:-2.5 72:-5 73:4.67799 75:-4.76579 76:4.48339 
0.677216439778249 55:0.242104 56:-0.960591 57:-3.64479 58:2.50228 60:3.32073 62:1.94118 65:-5 72:-5 73:5 75:-5 76:5 
0.7718725289849984 55:0.242104 56:-0.960591 57:-3.64479 58:2.50228 60:3.32073 62:1.94118 65:-5 72:-5 73:4.22944 75:-4.43624 76:3.7829 
0.4170434413655777 55:0.242104 56:-0.960591 57:-3.64479 58:2.50228 60:3.32073 62:1.94118 65:-5 72:-5 73:4.67799 75:-4.76579 76:4.48339 
0.7166804299954479 55:0.774889 56:-4.90969 57:-5 58:2.30173 60:-3.69894 62:2.05882 65:-2.5 72:-5 73:4.22944 75:-4.43624 76:3.7829 
0.7175979948201734 55:0.774889 56:-4.90969 57:-5 58:2.30173 60:-3.69894 62:2.05882 65:-2.5 72:-5 73:4.67799 75:-4.76579 76:4.48339 
0.8618674184299095 55:1.2992 56:-0.960591 57:-3.64479 58:2.50228 60:2.09531 62:2.29412 65:-2.5 72:-5 73:5 75:-5 76:5 
0.8546834190989087 55:1.82421 56:-0.960591 57:-3.64479 58:3.99727 60:3.0938 62:2.76471 65:-2.5 72:-5 73:5 75:-5 76:5 
0.8549300324013356 55:1.82421 56:-0.960591 57:-3.64479 58:3.99727 60:3.0938 62:2.76471 65:-2.5 72:-5 73:4.22944 75:-4.43624 76:3.7829 
16.28813875224051 55:1.82421 56:-0.960591 57:-3.64479 58:3.99727 60:3.0938 62:2.76471 65:-2.5 72:4.69417 73:-5 75:4.89613 76:-4.98807 
0.6774376430527075 55:2.35768 56:-5 57:-4.68616 58:3.69644 60:2.3525 62:2.76471 65:-2.5 72:-5 73:5 75:-5 76:5 
0.7721467021209298 55:2.35768 56:-5 57:-4.68616 58:3.69644 60:2.3525 62:2.76471 65:-2.5 72:-5 73:4.22944 75:-4.43624 76:3.7829 
0.4168632021098865 55:2.35768 56:-5 57:-4.68616 58:3.69644 60:2.3525 62:2.76471 65:-2.5 72:-5 73:4.67799 75:-4.76579 76:4.48339 
0.6778593678121931 55:2.89082 56:-0.960591 57:-1.51926 58:4.24339 60:2.18608 62:3.35294 65:-2.5 72:-5 73:5 75:-5 76:5 
0.7724192178838273 55:2.89082 56:-0.960591 57:-1.51926 58:4.24339 60:2.18608 62:3.35294 65:-2.5 72:-5 73:4.22944 75:-4.43624 76:3.7829 
0.4166519694942437 55:2.89082 56:-0.960591 57:-1.51926 58:4.24339 60:2.18608 62:3.35294 65:-2.5 72:-5 73:4.67799 75:-4.76579 76:4.48339 
0.7172608301264037 55:3.41461 56:-0.303777 57:-3.27389 58:2.40201 60:2.65507 62:3.35294 65:-2.5 72:-5 73:4.22944 75:-4.43624 76:3.7829 
0.717438943300881 55:3.41461 56:-0.303777 57:-3.27389 58:2.40201 60:2.65507 62:3.35294 65:-2.5 72:-5 73:4.67799 75:-4.76579 76:4.48339 
0.5973640477169452 55:3.94117 56:-0.960591 57:-3.64479 58:2.60255 60:5 62:3.58824 65:-2.5 72:-5 73:5 75:-5 76:5 
0.6809545296631905 55:3.94117 56:-0.960591 57:-3.64479 58:2.60255 60:5 62:3.58824 65:-2.5 72:-5 73:4.22944 75:-4.43624 76:3.7829 
0.3670506414727767 55:3.94117 56:-0.960591 57:-3.64479 58:2.60255 60:5 62:3.58824 65:-2.5 72:-5 73:4.67799 75:-4.76579 76:4.48339 
0.5970460792820765 55:4.46687 56:-0.960591 57:-3.64479 58:3.30447 60:4.51589 62:3.58824 65:-2.5 72:-5 73:5 75:-5 76:5 
0.6806737307685981 55:4.46687 56:-0.960591 57:-3.64479 58:3.30447 60:4.51589 62:3.58824 65:-2.5 72:-5 73:4.22944 75:-4.43624 76:3.7829 
0.3678645606195165 55:4.46687 56:-0.960591 57:-3.64479 58:3.30447 60:4.51589 62:3.58824 65:-2.5 72:-5 73:4.67799 75:-4.76579 76:4.48339 
0.6767344622947812 55:5 56:-0.960591 57:-3.24536 58:3.59617 60:-0.70348 62:5 65:-2.5 72:-5 73:5 75:-5 76:5 
0.7721835223645372 55:5 56:-0.960591 57:-3.24536 58:3.59617 60:-0.70348 62:5 65:-2.5 72:-5 73:4.22944 75:-4.43624 76:3.7829 
0.4175454896199723 55:5 56:-0.960591 57:-3.24536 58:3.59617 60:-0.70348 62:5 65:-2.5 72:-5 73:4.67799 75:-4.76579 76:4.48339 
-0.8604329621065845 55:-5 56:-0.960591 57:-3.64479 58:-5 60:3.03328 62:-5 65:-2.5 72:5 73:-5 75:4.82802 76:-4.98044 
-0.8601238030290056 55:-5 56:-0.960591 57:-3.64479 58:-5 60:3.03328 62:-5 65:-2.5 72:4.2682 73:-5 75:5 76:-5 
-0.6772842739522742 55:-4.47655 56:-0.952381 57:-3.27389 58:3.75114 60:-5 62:-4.29412 65:5 72:4.2682 73:-5 75:5 76:-5 
-0.6772842739522742 55:-4.47655 56:-0.952381 57:-3.27389 58:3.75114 60:-5 62:-4.29412 65:5 72:4.69417 73:-5 75:4.89613 76:-4.98807 
-0.8606116055756943 55:-3.95293 56:-0.960591 57:-1.29101 58:4.24339 60:3.74433 62:-2.05882 65:-2.5 72:5 73:-5 75:4.82802 76:-4.98044 
-0.8602256903624356 55:-3.95293 56:-0.960591 57:-1.29101 58:4.24339 60:3.74433 62:-2.05882 65:-2.5 72:4.2682 73:-5 75:5 76:-5 
-1.136581416917472 55:-3.42913 56:-0.960591 57:-3.64479 58:2.50228 60:3.45688 62:-1.94118 65:-2.5 72:5 73:-5 75:4.82802 76:-4.98044 
-0.67876820838355 55:-2.90551 56:-0.0164204 57:-3.21683 58:2.60255 60:4.16793 62:-0.764706 65:-2.5 72:4.2682 73:-5 75:5 76:-5 
-0.6745955964703029 55:-2.90551 56:-0.0164204 57:-3.21683 58:2.60255 60:4.16793 62:-0.764706 65:-2.5 72:4.69417 73:-5 75:4.89613 76:-4.98807 
-0.8601722590407318 55:-2.38223 56:-0.960591 57:-3.64479 58:2.90337 60:-0.461422 62:-0.294118 65:-2.5 72:5 73:-5 75:4.82802 76:-4.98044 
-0.8609662990988293 55:-2.38223 56:-0.960591 57:-3.64479 58:2.90337 60:-0.461422 62:-0.294118 65:-2.5 72:4.2682 73:-5 75:5 76:-5 
-1.137746150204386 55:-1.85878 56:-0.960591 57:-3.64479 58:3.17685 60:3.01815 62:0.176471 65:-2.5 72:5 73:-5 75:4.82802 76:-4.98044 
-0.6782706857513936 55:-1.33378 56:-0.853859 57:-3.53067 58:3.99727 60:2.68533 62:0.882353 72:4.2682 73:-5 75:5 76:-5 
-0.6762403720354641 55:-1.33378 56:-0.853859 57:-3.53067 58:3.99727 60:2.68533 62:0.882353 72:4.69417 73:-5 75:4.89613 76:-4.98807 
-0.8600588517493524 55:-0.808253 56:-0.755337 57:-2.21826 58:4.00638 60:2.29198 62:1.58824 65:-2.5 72:5 73:-5 75:4.82802 76:-4.98044 
-0.8609185475672747 55:-0.808253 56:-0.755337 57:-2.21826 58:4.00638 60:2.29198 62:1.58824 65:-2.5 72:4.2682 73:-5 75:5 76:-5 
-0.8604696564447205 55:-0.282901 56:5 57:5 58:5 60:1.74735 62:1.82353 65:-2.5 72:5 73:-5 75:4.82802 76:-4.98044 
-0.8601127547893459 55:-0.282901 56:5 57:5 58:5 60:1.74735 62:1.82353 65:-2.5 72:4.2682 73:-5 75:5 76:-5 
-0.860831901987317 55:0.242104 56:-0.960591 57:-3.64479 58:2.50228 60:3.32073 62:1.94118 65:-5 72:5 73:-5 75:4.82802 76:-4.98044 
-0.8601812380075159 55:0.242104 56:-0.960591 57:-3.64479 58:2.50228 60:3.32073 62:1.94118 65:-5 72:4.2682 73:-5 75:5 76:-5 
-0.6250109025923254 55:0.774889 56:-4.90969 57:-5 58:2.30173 60:-3.69894 62:2.05882 65:-2.5 72:5 73:-5 75:4.82802 76:-4.98044 
-0.6250109025923255 55:0.774889 56:-4.90969 57:-5 58:2.30173 60:-3.69894 62:2.05882 65:-2.5 72:4.69417 73:-5 75:4.89613 76:-4.98807 
-0.8601655746402731 55:1.2992 56:-0.960591 57:-3.64479 58:2.50228 60:2.09531 62:2.29412 65:-2.5 72:5 73:-5 75:4.82802 76:-4.98044 
-0.8602098117285162 55:1.2992 56:-0.960591 57:-3.64479 58:2.50228 60:2.09531 62:2.29412 65:-2.5 72:4.2682 73:-5 75:5 76:-5 
-11.80512385096862 55:1.82421 56:-0.960591 57:-3.64479 58:3.99727 60:3.0938 62:2.76471 65:-2.5 72:5 73:-5 75:4.82802 76:-4.98044 
-8.413609771123058 55:1.82421 56:-0.960591 57:-3.64479 58:3.99727 60:3.0938 62:2.76471 65:-2.5 72:4.2682 73:-5 75:5 76:-5 
-0.6255585004698095 55:2.35768 56:-5 57:-4.68616 58:3.69644 60:2.3525 62:2.76471 65:-2.5 72:5 73:-5 75:4.82802 76:-4.98044 
-0.6240190058462106 55:2.35768 56:-5 57:-4.68616 58:3.69644 60:2.3525 62:2.76471 65:-2.5 72:4.69417 73:-5 75:4.89613 76:-4.98807 
-0.8604799282694651 55:2.89082 56:-0.960591 57:-1.51926 58:4.24339 60:2.18608 62:3.35294 65:-2.5 72:5 73:-5 75:4.82802 76:-4.98044 
-0.8600961238702162 55:2.89082 56:-0.960591 57:-1.51926 58:4.24339 60:2.18608 62:3.35294 65:-2.5 72:4.2682 73:-5 75:5 76:-5 
-0.8602377112017319 55:3.41461 56:-0.303777 57:-3.27389 58:2.40201 60:2.65507 62:3.35294 65:-2.5 72:5 73:-5 75:4.82802 76:-4.98044 
-0.8607046942614766 55:3.41461 56:-0.303777 57:-3.27389 58:2.40201 60:2.65507 62:3.35294 65:-2.5 72:4.2682 73:-5 75:5 76:-5 
-0.6951878545472632 55:3.94117 56:-0.960591 57:-3.64479 58:2.60255 60:5 62:3.58824 65:-2.5 72:5 73:-5 75:4.82802 76:-4.98044 
-0.4324571847411553 55:3.94117 56:-0.960591 57:-3.64479 58:2.60255 60:5 62:3.58824 65:-2.5 72:4.69417 73:-5 75:4.89613 76:-4.98807 
-0.7173573818150686 55:4.46687 56:-0.960591 57:-3.64479 58:3.30447 60:4.51589 62:3.58824 65:-2.5 72:4.2682 73:-5 75:5 76:-5 
-0.5152125355723699 55:4.46687 56:-0.960591 57:-3.64479 58:3.30447 60:4.51589 62:3.58824 65:-2.5 72:4.69417 73:-5 75:4.89613 76:-4.98807 
-0.6767433162403373 55:5 56:-0.960591 57:-3.24536 58:3.59617 60:-0.70348 62:5 65:-2.5 72:4.2682 73:-5 75:5 76:-5 
-0.6777708226053178 55:5 56:-0.960591 57:-3.24536 58:3.59617 60:-0.70348 62:5 65:-2.5 72:4.69417 73:-5 75:4.89613 76:-4.98807 
